{"learner":{"attributes":{"scikit_learn":"{\"_estimator_type\": \"classifier\"}"},"feature_names":[],"feature_types":[],"gradient_booster":{"model":{"gbtree_model_param":{"num_parallel_tree":"1","num_trees":"100"},"iteration_indptr":[0,1,2,3,4,5,6,7,8,9,10,11,12,13,14,15,16,17,18,19,20,21,22,23,24,25,26,27,28,29,30,31,32,33,34,35,36,37,38,39,40,41,42,43,44,45,46,47,48,49,50,51,52,53,54,55,56,57,58,59,60,61,62,63,64,65,66,67,68,69,70,71,72,73,74,75,76,77,78,79,80,81,82,83,84,85,86,87,88,89,90,91,92,93,94,95,96,97,98,99,100],"tree_info":[0,0,0,0,0,0,0,0,0,0,0,0,0,0,0,0,0,0,0,0,0,0,0,0,0,0,0,0,0,0,0,0,0,0,0,0,0,0,0,0,0,0,0,0,0,0,0,0,0,0,0,0,0,0,0,0,0,0,0,0,0,0,0,0,0,0,0,0,0,0,0,0,0,0,0,0,0,0,0,0,0,0,0,0,0,0,0,0,0,0,0,0,0,0,0,0,0,0,0,0],"trees":[{"base_weights":[-1.1198446E0,2.158408E0,-1.1328042E0,6.783662E0,-7.620776E-1,-7.1637756E-1,-3.4010258E-1,7.03334E0,5.5759758E-2,8.5471976E-1,-9.247028E-1,2.911343E0,-3.2766736E-1,4.6854963E0,2.267696E0,3.179145E-1,-1.0078508E0,5.5759758E-2,1.150339E0,1.9041692E0,7.0482396E-2,-3.3411837E-1,1.9990329E-2,2.6281345E-1,-1.9717865E-1,4.878845E-1,-2.6659375E-1],"categories":[],"categories_nodes":[],"categories_segments":[],"categories_sizes":[],"default_left":[0,0,0,0,0,0,0,0,0,0,0,0,0,0,0,0,0,0,0,0,0,0,0,0,0,0,0],"id":0,"left_children":[1,3,5,7,9,11,-1,13,-1,-1,15,17,-1,19,-1,-1,21,-1,-1,-1,23,-1,25,-1,-1,-1,-1],"loss_changes":[1.0241914E3,1.2890082E3,7.876953E0,5.945642E1,3.737509E1,7.505958E1,0E0,8.411499E0,0E0,0E0,1.0532848E1,1.242532E1,0E0,6.954819E1,0E0,0E0,6.069458E0,0E0,0E0,0E0,2.585197E0,0E0,1.045319E1,0E0,0E0,0E0,0E0],"parents":[2147483647,0,0,1,1,2,2,3,3,4,4,5,5,7,7,10,10,11,11,13,13,16,16,20,20,22,22],"right_children":[2,4,6,8,10,12,-1,14,-1,-1,16,18,-1,20,-1,-1,22,-1,-1,-1,24,-1,26,-1,-1,-1,-1],"split_conditions":[-3.7718112E0,-2.0376196E0,-1.8999653E0,1.0626978E0,-5.531393E-1,-2.2769532E0,-3.4010258E-1,-5.4873574E-1,5.5759758E-2,8.5471976E-1,-1.7335463E0,9.545574E-1,-3.2766736E-1,2.0849688E0,2.267696E0,3.179145E-1,3.1118824E0,5.5759758E-2,1.150339E0,1.9041692E0,-8.254729E-2,-3.3411837E-1,6.3188486E-2,2.6281345E-1,-1.9717865E-1,4.878845E-1,-2.6659375E-1],"split_indices":[13,9,16,6,6,11,0,25,0,0,9,3,0,26,0,0,3,0,0,0,12,0,14,0,0,0,0],"split_type":[0,0,0,0,0,0,0,0,0,0,0,0,0,0,0,0,0,0,0,0,0,0,0,0,0,0,0],"sum_hessian":[2.4048496E4,9.404292E1,2.3954453E4,3.588619E1,5.8156734E1,5.171833E1,2.3902734E4,3.451407E1,1.372119E0,1.7943095E0,5.6362427E1,4.2219048E0,4.7496426E1,8.127167E0,2.6386904E1,1.7943095E0,5.4568115E1,1.372119E0,2.8497856E0,5.699571E0,2.4275951E0,4.9396282E1,5.171833E0,1.0554762E0,1.372119E0,1.5832142E0,3.588619E0],"tree_param":{"num_deleted":"0","num_feature":"29","num_nodes":"27","size_leaf_vector":"1"}},{"base_weights":[-1.0803834E0,6.6611856E-1,-1.0925542E0,1.4940238E0,-8.662289E-1,-6.480548E-1,-3.2807526E-1,1.5960554E0,-3.7497944E-1,-1.0480971E0,1.3783857E-1,1.2620451E0,-1.0424566E0,1.6352534E0,-1.8724656E-1,2.4831522E-1,-2.841146E-1,-2.9060882E-1,-3.2641602E-1,-4.8038286E-1,3.861109E-1,-5.2410647E-2,1.7396934E0,-3.2022783E-1,-1.1638396E-1,8.154311E-1,1.7113479E0,6.907446E-2,-1.8585275E-1,2.1125479E-1,-2.6941726E-1,2.2683625E0,-8.7520495E-2,3.937825E-1,-2.8094018E-1,4.8142806E-1,9.757411E-1,7.920011E-2,8.218956E-1],"categories":[],"categories_nodes":[],"categories_segments":[],"categories_sizes":[],"default_left":[0,0,0,0,0,0,0,0,0,0,0,0,0,0,0,0,0,0,0,0,0,0,0,0,0,0,0,0,0,0,0,0,0,0,0,0,0,0,0],"id":1,"left_children":[1,3,5,7,9,11,-1,13,15,17,19,21,23,25,-1,-1,-1,27,-1,29,-1,-1,31,-1,-1,33,35,-1,-1,-1,-1,37,-1,-1,-1,-1,-1,-1,-1],"loss_changes":[3.9235156E2,1.638357E2,7.6679688E0,1.6530945E1,8.466755E0,3.5029266E1,0E0,7.9318237E0,4.316673E0,8.551636E-1,6.2115927E0,5.870431E0,2.0104218E-1,3.4899597E0,0E0,0E0,0E0,7.085784E-1,0E0,3.525381E0,0E0,0E0,7.297514E0,0E0,0E0,8.686394E0,6.402359E0,0E0,0E0,0E0,0E0,4.015789E0,0E0,0E0,0E0,0E0,0E0,0E0,0E0],"parents":[2147483647,0,0,1,1,2,2,3,3,4,4,5,5,7,7,8,8,9,9,10,10,11,11,12,12,13,13,17,17,19,19,22,22,25,25,26,26,31,31],"right_children":[2,4,6,8,10,12,-1,14,16,18,20,22,24,26,-1,-1,-1,28,-1,30,-1,-1,32,-1,-1,34,36,-1,-1,-1,-1,38,-1,-1,-1,-1,-1,-1,-1],"split_conditions":[-3.7718112E0,3.171347E-1,-1.8999653E0,4.3405455E-1,2.53599E0,-2.2769532E0,-3.2807526E-1,1.9848123E0,-8.198545E-1,5.312693E-1,-2.4533573E-1,-6.946365E-1,2.8452396E0,1.219936E0,-1.8724656E-1,2.4831522E-1,-2.841146E-1,-6.9252115E-1,-3.2641602E-1,-2.1917994E0,3.861109E-1,-5.2410647E-2,1.2676798E0,-3.2022783E-1,-1.1638396E-1,6.708133E-1,-2.0376196E0,6.907446E-2,-1.8585275E-1,2.1125479E-1,-2.6941726E-1,1.2278847E-1,-8.7520495E-2,3.937825E-1,-2.8094018E-1,4.8142806E-1,9.757411E-1,7.920011E-2,8.218956E-1],"split_indices":[13,6,16,8,3,11,0,15,19,6,20,19,28,3,0,0,0,9,0,11,0,0,12,0,0,19,9,0,0,0,0,21,0,0,0,0,0,0,0],"split_type":[0,0,0,0,0,0,0,0,0,0,0,0,0,0,0,0,0,0,0,0,0,0,0,0,0,0,0,0,0,0,0,0,0,0,0,0,0,0,0],"sum_hessian":[1.8422734E4,1.2712282E2,1.8295611E4,8.254822E1,4.45746E1,4.375181E1,1.825186E4,7.841354E1,4.134668E0,3.770177E1,6.8728323E0,7.1113634E0,3.664044E1,7.7312065E1,1.101482E0,1.1887021E0,2.9459658E0,2.3035862E0,3.5398182E1,4.8472137E0,2.0256188E0,1.9325562E0,5.1788073E0,3.4686287E1,1.954157E0,7.5615907E0,6.975047E1,1.0077024E0,1.2958838E0,1.0847626E0,3.7624512E0,4.0168166E0,1.1619906E0,6.085357E0,1.4762332E0,6.7147675E1,2.6028035E0,1.0616895E0,2.9551272E0],"tree_param":{"num_deleted":"0","num_feature":"29","num_nodes":"39","size_leaf_vector":"1"}},{"base_weights":[-1.0512718E0,5.228721E-1,-1.064171E0,1.1616224E0,-7.49892E-1,-5.8694893E-1,-3.1961092E-1,1.217887E0,-2.1003488E-1,-9.937679E-1,5.501316E-2,9.7764766E-1,-9.87609E-1,1.2551361E0,-3.0117378E-2,6.134248E-2,-3.1299025E-1,8.689428E-1,-2.6722032E-1,1.3045869E0,-1.07841305E-1,-1.01126E0,-4.946799E-2,1.483622E0,9.7844887E-1,-2.1600345E-1,2.1079147E-1,-1.8508399E-1,1.3652706E0,1.6127456E0,-6.1302554E-2,-3.123759E-1,-7.998639E-2,4.6122053E-1,2.1545377E-1,3.97397E-1,1.7453615E-1,5.526723E-1,-3.767403E-2,2.8920704E-2,5.894815E-1],"categories":[],"categories_nodes":[],"categories_segments":[],"categories_sizes":[],"default_left":[0,0,0,0,0,0,0,0,0,0,0,0,0,0,0,0,0,0,0,0,0,0,0,0,0,0,0,0,0,0,0,0,0,0,0,0,0,0,0,0,0],"id":2,"left_children":[1,3,5,7,9,11,-1,13,-1,15,17,19,21,23,25,-1,-1,27,-1,29,-1,31,-1,33,35,-1,-1,-1,37,39,-1,-1,-1,-1,-1,-1,-1,-1,-1,-1,-1],"loss_changes":[2.8426855E2,9.3741974E1,7.303711E0,8.8613205E0,7.6671658E0,2.4129932E1,0E0,3.5046768E0,0E0,1.9829311E0,8.444994E0,3.981985E0,4.153614E-1,3.127884E0,2.0922172E0,0E0,0E0,5.165518E0,0E0,3.4325418E0,0E0,3.6750603E-1,0E0,4.493866E-1,4.1319923E0,0E0,0E0,0E0,3.577403E0,2.8300543E0,0E0,0E0,0E0,0E0,0E0,0E0,0E0,0E0,0E0,0E0,0E0],"parents":[2147483647,0,0,1,1,2,2,3,3,4,4,5,5,7,7,9,9,10,10,11,11,12,12,13,13,14,14,17,17,19,19,21,21,23,23,24,24,28,28,29,29],"right_children":[2,4,6,8,10,12,-1,14,-1,16,18,20,22,24,26,-1,-1,28,-1,30,-1,32,-1,34,36,-1,-1,-1,38,40,-1,-1,-1,-1,-1,-1,-1,-1,-1,-1,-1],"split_conditions":[-3.7718112E0,-1.9431003E0,-1.8999653E0,1.1280122E0,1.3390442E0,-1.2899532E0,-3.1961092E-1,2.209419E0,-2.1003488E-1,-1.1181036E0,-3.4411377E-1,1.7826502E0,1.6634725E0,8.53671E-1,3.0816448E-1,6.134248E-2,-3.1299025E-1,1.11967094E-1,-2.6722032E-1,-2.5595696E0,-1.07841305E-1,2.8452396E0,-4.946799E-2,1.6438881E0,6.708133E-1,-2.1600345E-1,2.1079147E-1,-1.8508399E-1,8.6197406E-1,-1.1551889E0,-6.1302554E-2,-3.123759E-1,-7.998639E-2,4.6122053E-1,2.1545377E-1,3.97397E-1,1.7453615E-1,5.526723E-1,-3.767403E-2,2.8920704E-2,5.894815E-1],"split_indices":[13,11,16,8,3,9,0,15,0,14,28,26,25,27,27,0,0,27,0,11,0,28,0,12,19,0,0,0,6,5,0,0,0,0,0,0,0,0,0,0,0],"split_type":[0,0,0,0,0,0,0,0,0,0,0,0,0,0,0,0,0,0,0,0,0,0,0,0,0,0,0,0,0,0,0,0,0,0,0,0,0,0,0,0,0],"sum_hessian":[1.3971297E4,1.1323537E2,1.3858062E4,7.5454865E1,3.7780506E1,3.5952393E1,1.3822108E4,7.357708E1,1.8777825E0,2.8815224E1,8.965283E0,7.0360794E0,2.8916315E1,7.1439125E1,2.1379528E0,1.0196995E0,2.7795525E1,4.862085E0,4.103199E0,5.6732435E0,1.3628362E0,2.7885506E1,1.0308098E0,3.673862E1,3.470051E1,1.1101404E0,1.0278124E0,1.156568E0,3.7055168E0,4.6539874E0,1.0192559E0,2.6422897E1,1.462608E0,3.3384525E1,3.3540938E0,1.7279438E1,1.7421068E1,2.6287866E0,1.0767303E0,1.1172888E0,3.5366988E0],"tree_param":{"num_deleted":"0","num_feature":"29","num_nodes":"41","size_leaf_vector":"1"}},{"base_weights":[-1.0296696E0,4.3812543E-1,-1.0433857E0,9.487078E-1,-7.233374E-1,-5.32188E-1,-3.1343642E-1,-1.03213385E-1,1.0227901E0,3.0853772E-1,-8.6155313E-1,6.7392886E-1,-9.6534526E-1,-7.045511E-1,2.0664808E-1,6.2572944E-1,1.1807415E0,-9.8558253E-1,-1.8162796E-1,-1.05162986E-1,9.0134096E-1,-3.010077E-1,-8.9553446E-2,-2.2632263E-3,-3.2978073E-1,8.679116E-1,-6.2318826E-1,1.3188808E0,8.6042947E-1,-5.2942853E-2,-3.038765E-1,5.325094E-1,-2.3984301E-1,1.1769193E0,-1.4597399E-2,3.0385947E-1,-2.1609537E-1,-2.8508547E-1,3.432034E-2,4.0507466E-1,9.503307E-2,2.8518632E-1,-7.554565E-2,3.2185662E-1,-6.545338E-2,4.315252E-1,6.785541E-2],"categories":[],"categories_nodes":[],"categories_segments":[],"categories_sizes":[],"default_left":[0,0,0,0,0,0,0,0,0,0,0,0,0,0,0,0,0,0,0,0,0,0,0,0,0,0,0,0,0,0,0,0,0,0,0,0,0,0,0,0,0,0,0,0,0,0,0],"id":3,"left_children":[1,3,5,7,9,11,-1,13,15,-1,17,19,21,23,-1,25,27,29,31,-1,33,-1,-1,-1,-1,35,37,39,41,-1,-1,43,-1,45,-1,-1,-1,-1,-1,-1,-1,-1,-1,-1,-1,-1,-1],"loss_changes":[2.1259668E2,5.8956593E1,6.9277344E0,5.4582863E0,8.288447E0,1.6636555E1,0E0,3.0703142E0,3.2913208E0,0E0,2.2565308E0,2.336857E0,2.8159714E-1,9.764997E-1,0E0,6.715783E0,8.4947586E-1,3.5654068E-1,2.932564E0,0E0,1.988955E0,0E0,0E0,0E0,0E0,4.7624187E0,1.0491265E0,4.981804E-1,1.8834858E0,0E0,0E0,1.5465329E0,0E0,1.1064544E0,0E0,0E0,0E0,0E0,0E0,0E0,0E0,0E0,0E0,0E0,0E0,0E0,0E0],"parents":[2147483647,0,0,1,1,2,2,3,3,4,4,5,5,7,7,8,8,10,10,11,11,12,12,13,13,15,15,16,16,17,17,18,18,20,20,25,25,26,26,27,27,28,28,31,31,33,33],"right_children":[2,4,6,8,10,12,-1,14,16,-1,18,20,22,24,-1,26,28,30,32,-1,34,-1,-1,-1,-1,36,38,40,42,-1,-1,44,-1,46,-1,-1,-1,-1,-1,-1,-1,-1,-1,-1,-1,-1,-1],"split_conditions":[-3.7718112E0,-1.6252177E0,-1.8999653E0,1.0842073E0,-1.33018E0,-2.2769532E0,-3.1343642E-1,1.437531E0,-4.9817097E-1,3.0853772E-1,3.1118824E0,-6.974842E-1,2.8452396E0,6.973406E-1,2.0664808E-1,3.7969966E0,6.837496E-1,-2.1141489E0,6.3188486E-2,-1.05162986E-1,-1.2077382E0,-3.010077E-1,-8.9553446E-2,-2.2632263E-3,-3.2978073E-1,5.312693E-1,-5.8237433E-1,2.856952E0,1.4129845E0,-5.2942853E-2,-3.038765E-1,1.8439956E-1,-2.3984301E-1,-1.6252177E0,-1.4597399E-2,3.0385947E-1,-2.1609537E-1,-2.8508547E-1,3.432034E-2,4.0507466E-1,9.503307E-2,2.8518632E-1,-7.554565E-2,3.2185662E-1,-6.545338E-2,4.315252E-1,6.785541E-2],"split_indices":[13,9,16,10,6,11,0,3,14,0,3,22,28,10,0,26,14,17,14,0,13,0,0,0,0,6,21,19,24,0,0,24,0,9,0,0,0,0,0,0,0,0,0,0,0,0,0],"split_type":[0,0,0,0,0,0,0,0,0,0,0,0,0,0,0,0,0,0,0,0,0,0,0,0,0,0,0,0,0,0,0,0,0,0,0,0,0,0,0,0,0,0,0,0,0,0,0],"sum_hessian":[1.0536253E4,9.725993E1,1.0438993E4,6.768749E1,2.9572437E1,2.9598793E1,1.0409395E4,4.4274387E0,6.3260056E1,1.6915932E0,2.7880844E1,7.674226E0,2.1924566E1,2.579486E0,1.8479526E0,1.941525E1,4.3844807E1,2.319936E1,4.6814857E0,1.2957115E0,6.3785143E0,2.026469E1,1.6598753E0,1.3010893E0,1.2783967E0,1.6517376E1,2.8978748E0,2.8455473E1,1.5389332E1,1.0019351E0,2.2197424E1,2.235601E0,2.4458847E0,4.759114E0,1.6194005E0,1.546793E1,1.0494472E0,1.8078065E0,1.0900683E0,2.7254921E1,1.2005517E0,1.4369438E1,1.019894E0,1.0503751E0,1.1852258E0,3.3301954E0,1.4289186E0],"tree_param":{"num_deleted":"0","num_feature":"29","num_nodes":"47","size_leaf_vector":"1"}},{"base_weights":[-1.0128766E0,3.7262762E-1,-1.0274906E0,8.056745E-1,-6.793086E-1,-4.7785452E-1,-1.0291517E0,5.299991E-2,9.2009586E-1,-9.3243676E-1,1.351797E-1,5.9221673E-1,-9.036202E-1,-3.095578E-1,-9.6926147E-1,6.1534667E-1,-3.5149652E-1,5.940784E-1,1.0925838E0,-2.752466E-2,-3.000243E-1,-2.0218246E-1,7.8282213E-1,9.954378E-1,-1.9966139E-1,-3.779679E-1,-2.9316342E-1,-9.9824256E-1,-4.2903048E-1,9.667781E-1,-1.5222633E-1,1.2179556E0,1.23057924E-1,3.469147E-1,-9.260898E-2,3.8178855E-1,-3.4040276E-2,3.7351128E-1,-7.9406705E-3,1.2893213E-1,-2.2694199E-1,9.222813E-2,-2.2315517E-1,-3.054562E-1,-1.0067744E0,-8.4852004E-1,1.1029279E0,3.220017E-1,7.817439E-2,6.647314E-2,3.9678675E-1,1.7293918E-1,-3.7538743E-1,-2.422601E-1,2.9439262E-1,-3.0291376E-1,-5.58592E-3,-2.9048392E-1,1.3668193E-1,8.1195945E-1,-1.2459177E-1],"categories":[],"categories_nodes":[],"categories_segments":[],"categories_sizes":[],"default_left":[0,0,0,0,0,0,0,0,0,0,0,0,0,0,0,0,0,0,0,0,0,0,0,0,0,0,0,0,0,0,0,0,0,0,0,0,0,0,0,0,0,0,0,0,0,0,0,0,0,0,0,0,0,0,0,0,0,0,0,0,0],"id":4,"left_children":[1,3,5,7,9,11,13,15,17,19,21,23,25,-1,27,29,-1,31,33,-1,-1,-1,35,37,39,41,-1,43,45,47,-1,49,51,-1,-1,-1,-1,-1,-1,-1,-1,-1,-1,53,55,57,59,-1,-1,-1,-1,-1,-1,-1,-1,-1,-1,-1,-1,-1,-1],"loss_changes":[1.6070459E2,3.852992E1,6.6621094E0,5.077408E0,5.2509212E0,1.21419525E1,2.6660156E-1,6.861E0,2.2529678E0,9.938755E-1,4.0736365E0,2.706993E0,3.509493E-1,0E0,5.119812E0,3.1601262E0,0E0,5.74144E0,3.2676888E0,0E0,0E0,0E0,1.9975402E0,1.4032001E0,1.5459313E0,1.2110794E0,0E0,1.6759033E0,1.3657436E1,1.339736E-1,0E0,5.946598E-1,8.532918E0,0E0,0E0,0E0,0E0,0E0,0E0,0E0,0E0,0E0,0E0,4.3573027E0,9.423218E-1,2.9565582E0,1.2542969E1,0E0,0E0,0E0,0E0,0E0,0E0,0E0,0E0,0E0,0E0,0E0,0E0,0E0,0E0],"parents":[2147483647,0,0,1,1,2,2,3,3,4,4,5,5,6,6,7,7,8,8,9,9,10,10,11,11,12,12,14,14,15,15,17,17,18,18,22,22,23,23,24,24,25,25,27,27,28,28,29,29,31,31,32,32,43,43,44,44,45,45,46,46],"right_children":[2,4,6,8,10,12,14,16,18,20,22,24,26,-1,28,30,-1,32,34,-1,-1,-1,36,38,40,42,-1,44,46,48,-1,50,52,-1,-1,-1,-1,-1,-1,-1,-1,-1,-1,54,56,58,60,-1,-1,-1,-1,-1,-1,-1,-1,-1,-1,-1,-1,-1,-1],"split_conditions":[-3.7718112E0,3.171347E-1,-1.8999653E0,1.219936E0,2.53599E0,-1.2899532E0,1.8630875E0,6.9939005E-1,-4.0959942E-1,5.312693E-1,1.6035484E0,5.587865E-1,-3.777003E-1,-3.095578E-1,1.7191577E0,3.0549866E-1,-3.5149652E-1,-6.9179296E-1,1.359646E0,-2.752466E-2,-3.000243E-1,-2.0218246E-1,2.657064E0,6.342979E-1,-9.395838E-1,-1.0856096E0,-2.9316342E-1,-2.282446E0,4.2730117E-1,-6.6745543E-1,-1.5222633E-1,1.8551983E0,1.5031937E0,3.469147E-1,-9.260898E-2,3.8178855E-1,-3.4040276E-2,3.7351128E-1,-7.9406705E-3,1.2893213E-1,-2.2694199E-1,9.222813E-2,-2.2315517E-1,-1.5842095E-1,2.933122E0,1.559557E0,-3.2452312E-1,3.220017E-1,7.817439E-2,6.647314E-2,3.9678675E-1,1.7293918E-1,-3.7538743E-1,-2.422601E-1,2.9439262E-1,-3.0291376E-1,-5.58592E-3,-2.9048392E-1,1.3668193E-1,8.1195945E-1,-1.2459177E-1],"split_indices":[13,6,16,3,3,9,3,19,25,6,10,7,4,0,16,4,0,25,15,0,0,0,10,28,12,26,0,13,0,0,0,10,27,0,0,0,0,0,0,0,0,0,0,20,25,19,28,0,0,0,0,0,0,0,0,0,0,0,0,0,0],"split_type":[0,0,0,0,0,0,0,0,0,0,0,0,0,0,0,0,0,0,0,0,0,0,0,0,0,0,0,0,0,0,0,0,0,0,0,0,0,0,0,0,0,0,0,0,0,0,0,0,0,0,0,0,0,0,0,0,0,0,0,0,0],"sum_hessian":[7.9170767E3,8.2379745E1,7.8346973E3,5.8522217E1,2.385753E1,2.4475908E1,7.810221E3,7.915634E0,5.0606583E1,1.8090513E1,5.767016E0,6.855394E0,1.7620516E1,7.4568604E3,3.5336093E2,5.7656517E0,2.149983E0,1.904812E1,3.155846E1,1.5226929E0,1.6567822E1,2.545825E0,3.2211912E0,4.372086E0,2.4833076E0,2.9174676E0,1.4703048E1,3.3456512E2,1.8795794E1,4.4970026E0,1.2686491E0,7.512228E0,1.15358925E1,3.0351368E1,1.207093E0,1.8114053E0,1.4097857E0,3.3383496E0,1.0337363E0,1.272731E0,1.2105767E0,1.0709884E0,1.846479E0,4.517888E0,3.3004724E2,1.510561E1,3.6901834E0,3.455675E0,1.0413275E0,1.0104265E0,6.5018015E0,9.110756E0,2.4251375E0,3.5177448E0,1.0001432E0,3.290471E2,1.0001432E0,1.4070979E1,1.0346308E0,1.4139955E0,2.276188E0],"tree_param":{"num_deleted":"0","num_feature":"29","num_nodes":"61","size_leaf_vector":"1"}},{"base_weights":[-9.990816E-1,3.2241154E-1,-1.0146894E0,6.996668E-1,-6.221256E-1,-4.3046284E-1,-1.0166609E0,-1.5834388E-1,7.7554506E-1,1.569031E-1,-9.3933696E-1,4.5239595E-1,-8.934637E-1,-9.1485554E-1,-1.0193284E0,1.7935756E-1,-5.5358225E-1,1.0018226E0,4.991531E-1,7.2599226E-1,-2.136473E-1,-2.9208043E-1,-7.080536E-2,-1.2252258E-1,7.9517907E-1,-3.7528817E-2,-2.8682882E-1,-9.586931E-1,-3.8137773E-1,-3.0605176E-1,-8.01417E-1,-2.8323284E-1,6.7881614E-2,1.0883609E0,1.3885732E-1,-1.1033348E-1,7.5744534E-1,2.8733578E-1,-1.25914095E-2,1.00244686E-1,-1.9619685E-1,3.5583872E-1,-6.1910573E-2,-9.8442966E-1,-2.5003824E-1,-8.156145E-1,4.1835022E-1,-2.9500493E-1,4.029215E-1,3.479118E-1,9.268286E-2,-1.5185991E-1,2.0355234E-1,2.4700987E-1,-2.0962301E-1,2.9106408E-1,-5.155424E-2,-1.982396E-2,-2.973737E-1,2.8986096E-1,-2.4586748E-1,-2.7290708E-1,-1.0143192E-2,-2.1310745E-1,4.0657946E-1,-2.091992E-1,5.524366E-1],"categories":[],"categories_nodes":[],"categories_segments":[],"categories_sizes":[],"default_left":[0,0,0,0,0,0,0,0,0,0,0,0,0,0,0,0,0,0,0,0,0,0,0,0,0,0,0,0,0,0,0,0,0,0,0,0,0,0,0,0,0,0,0,0,0,0,0,0,0,0,0,0,0,0,0,0,0,0,0,0,0,0,0,0,0,0,0],"id":5,"left_children":[1,3,5,7,9,11,13,15,17,19,21,23,25,27,29,-1,31,33,35,37,-1,-1,-1,39,41,-1,-1,43,45,-1,47,-1,-1,49,51,53,55,-1,-1,-1,-1,-1,-1,57,59,61,63,-1,65,-1,-1,-1,-1,-1,-1,-1,-1,-1,-1,-1,-1,-1,-1,-1,-1,-1,-1],"loss_changes":[1.22791504E2,2.5402187E1,6.3217773E0,3.4131336E0,5.2199845E0,9.180644E0,6.5478516E-1,1.8064626E0,2.4145222E0,3.8784692E0,1.2520027E-1,1.6838939E0,5.74378E-1,3.3543854E0,2.290039E-1,0E0,1.3591805E0,1.6883297E0,3.6998334E0,8.5946035E-1,0E0,0E0,0E0,1.158631E0,2.2717638E0,0E0,0E0,2.4226532E0,5.112439E0,0E0,6.2285748E0,0E0,0E0,8.784466E-1,1.5239404E0,4.811285E0,3.3819275E0,0E0,0E0,0E0,0E0,0E0,0E0,8.1622314E-1,5.272446E0,6.490798E-1,6.7745967E0,0E0,7.935996E0,0E0,0E0,0E0,0E0,0E0,0E0,0E0,0E0,0E0,0E0,0E0,0E0,0E0,0E0,0E0,0E0,0E0,0E0],"parents":[2147483647,0,0,1,1,2,2,3,3,4,4,5,5,6,6,7,7,8,8,9,9,10,10,11,11,12,12,13,13,14,14,16,16,17,17,18,18,19,19,23,23,24,24,27,27,28,28,30,30,33,33,34,34,35,35,36,36,43,43,44,44,45,45,46,46,48,48],"right_children":[2,4,6,8,10,12,14,16,18,20,22,24,26,28,30,-1,32,34,36,38,-1,-1,-1,40,42,-1,-1,44,46,-1,48,-1,-1,50,52,54,56,-1,-1,-1,-1,-1,-1,58,60,62,64,-1,66,-1,-1,-1,-1,-1,-1,-1,-1,-1,-1,-1,-1,-1,-1,-1,-1,-1,-1],"split_conditions":[-3.7718112E0,-1.6252177E0,-1.8999653E0,8.115333E-1,-1.20386116E-1,-2.2769532E0,-1.8631431E0,-1.0978415E0,8.53671E-1,8.6197406E-1,9.955809E-1,1.7507491E0,-1.6805581E0,1.8630875E0,2.5615036E0,1.7935756E-1,1.4710061E-1,1.6438881E0,-4.7010332E-1,-3.3753836E-1,-2.136473E-1,-2.9208043E-1,-7.080536E-2,-1.1450639E0,5.396783E-1,-3.7528817E-2,-2.8682882E-1,7.182577E-1,-2.2734626E-1,-3.0605176E-1,1.7285569E0,-2.8323284E-1,6.7881614E-2,5.312693E-1,-3.2722494E-1,-6.9179296E-1,-2.4868567E0,2.8733578E-1,-1.25914095E-2,1.00244686E-1,-1.9619685E-1,3.5583872E-1,-6.1910573E-2,-1.7975779E0,-1.2899532E0,1.5466503E0,-5.0142896E-1,-2.9500493E-1,1.6064586E-1,3.479118E-1,9.268286E-2,-1.5185991E-1,2.0355234E-1,2.4700987E-1,-2.0962301E-1,2.9106408E-1,-5.155424E-2,-1.982396E-2,-2.973737E-1,2.8986096E-1,-2.4586748E-1,-2.7290708E-1,-1.0143192E-2,-2.1310745E-1,4.0657946E-1,-2.091992E-1,5.524366E-1],"split_indices":[13,9,16,3,19,11,13,0,27,6,23,10,14,3,16,0,25,12,25,9,0,0,0,8,27,0,0,28,20,0,3,0,0,6,22,25,2,0,0,0,0,0,0,21,9,10,11,0,27,0,0,0,0,0,0,0,0,0,0,0,0,0,0,0,0,0,0],"split_type":[0,0,0,0,0,0,0,0,0,0,0,0,0,0,0,0,0,0,0,0,0,0,0,0,0,0,0,0,0,0,0,0,0,0,0,0,0,0,0,0,0,0,0,0,0,0,0,0,0,0,0,0,0,0,0,0,0,0,0,0,0,0,0,0,0,0,0],"sum_hessian":[5.9364844E3,6.906649E1,5.867418E3,4.953935E1,1.9527142E1,2.0470669E1,5.8469473E3,3.9367568E0,4.5602592E1,5.796667E0,1.3730474E1,7.0501723E0,1.3420497E1,1.5806816E2,5.6888794E3,1.1753424E0,2.7614145E0,2.3631353E1,2.197124E1,3.6023533E0,2.1943135E0,1.2726182E1,1.0042924E0,2.8734183E0,4.176754E0,1.2374078E0,1.2183089E1,1.4532898E2,1.2739191E1,5.6632607E3,2.5618591E1,1.6996559E0,1.0617585E0,2.1240194E1,2.3911586E0,6.710189E0,1.526105E1,2.5772798E0,1.0250736E0,1.7451448E0,1.1282735E0,2.8715575E0,1.3051966E0,1.3986044E2,5.468538E0,8.243348E0,4.4958434E0,2.2415846E1,3.2027445E0,1.9011992E1,2.2282019E0,1.1174409E0,1.2737176E0,2.4396305E0,4.2705584E0,1.2382057E1,2.8789935E0,1.1091846E0,1.3875125E2,1.5219045E0,3.9466336E0,7.2119446E0,1.0314033E0,2.148881E0,2.3469625E0,2.1066995E0,1.096045E0],"tree_param":{"num_deleted":"0","num_feature":"29","num_nodes":"67","size_leaf_vector":"1"}},{"base_weights":[-9.866195E-1,2.8084138E-1,-1.0036527E0,6.372477E-1,-5.407124E-1,-3.8682348E-1,-1.0059708E0,3.6441112E-1,8.616199E-1,1.6069476E-1,-8.392768E-1,4.3089023E-1,-8.2101536E-1,-1.0106974E0,-9.052859E-1,6.500534E-1,-1.7288122E-1,2.0200703E-1,9.818989E-1,5.005549E-1,-1.9045179E-1,-2.874065E-1,1.7641054E-3,-1.7441177E-1,7.8444684E-1,-3.2020845E-2,-8.892252E-1,-3.0361614E-1,-8.5458255E-1,-9.524301E-1,-2.7967906E-1,8.752735E-1,-1.839072E-1,-7.488424E-1,7.0662725E-1,2.6137766E-1,-2.0440723E-1,1.0499911E0,-3.240266E-2,2.7367768E-1,-4.1702166E-2,-1.9376817E-1,1.14118844E-1,5.1367316E-2,2.8654E-1,-6.032725E-2,-2.8176573E-1,-8.984867E-1,1.2364168E-1,-1.8941054E-1,-9.6672624E-1,9.275094E-1,-7.784932E-1,3.087126E-1,-2.6337164E-3,1.391367E-1,-2.9381266E-1,7.171652E-2,-3.2602268E-1,2.4451323E-1,6.6784985E-2,3.2653114E-1,8.491038E-2,7.6642353E-3,-2.8304762E-1,-2.2641687E-1,2.8743568E-1,-2.915265E-1,-2.0230565E-2,-2.052139E-1,6.509419E-1,5.4104283E-2,-2.7980885E-1],"categories":[],"categories_nodes":[],"categories_segments":[],"categories_sizes":[],"default_left":[0,0,0,0,0,0,0,0,0,0,0,0,0,0,0,0,0,0,0,0,0,0,0,0,0,0,0,0,0,0,0,0,0,0,0,0,0,0,0,0,0,0,0,0,0,0,0,0,0,0,0,0,0,0,0,0,0,0,0,0,0,0,0,0,0,0,0,0,0,0,0,0,0],"id":6,"left_children":[1,3,5,7,9,11,13,15,17,19,21,23,25,27,29,31,33,35,37,39,-1,-1,-1,41,43,-1,45,-1,47,49,51,53,55,57,59,-1,-1,61,-1,-1,-1,-1,-1,-1,-1,-1,-1,63,-1,65,67,69,71,-1,-1,-1,-1,-1,-1,-1,-1,-1,-1,-1,-1,-1,-1,-1,-1,-1,-1,-1,-1],"loss_changes":[9.632568E1,1.7847105E1,5.888672E0,2.2662106E0,4.035568E0,6.7660933E0,1.1655273E0,3.297406E0,1.5784492E0,2.0483336E0,1.332962E0,1.6176878E0,4.9660492E-1,1.8066406E-2,5.799469E0,2.7453675E0,4.578264E0,3.3799076E0,1.4999142E0,1.4549221E0,0E0,0E0,0E0,1.1271157E0,3.1271172E-1,0E0,1.8770695E-1,0E0,2.7244835E0,1.8985748E0,1.02531185E1,1.5053825E0,2.3874195E0,2.0342205E0,1.1541009E-2,0E0,0E0,2.1317291E-1,0E0,0E0,0E0,0E0,0E0,0E0,0E0,0E0,0E0,1.7385864E0,0E0,3.806747E0,7.805176E-1,1.1663073E1,1.9046001E0,0E0,0E0,0E0,0E0,0E0,0E0,0E0,0E0,0E0,0E0,0E0,0E0,0E0,0E0,0E0,0E0,0E0,0E0,0E0,0E0],"parents":[2147483647,0,0,1,1,2,2,3,3,4,4,5,5,6,6,7,7,8,8,9,9,10,10,11,11,12,12,13,13,14,14,15,15,16,16,17,17,18,18,19,19,23,23,24,24,26,26,28,28,29,29,30,30,31,31,32,32,33,33,34,34,37,37,47,47,49,49,50,50,51,51,52,52],"right_children":[2,4,6,8,10,12,14,16,18,20,22,24,26,28,30,32,34,36,38,40,-1,-1,-1,42,44,-1,46,-1,48,50,52,54,56,58,60,-1,-1,62,-1,-1,-1,-1,-1,-1,-1,-1,-1,64,-1,66,68,70,72,-1,-1,-1,-1,-1,-1,-1,-1,-1,-1,-1,-1,-1,-1,-1,-1,-1,-1,-1,-1],"split_conditions":[-3.7718112E0,-1.9431003E0,-1.8999653E0,3.1118824E0,-1.6684581E-1,-2.458576E0,1.8630875E0,6.708133E-1,-4.7010332E-1,-3.2008526E-1,5.236602E-1,-7.6642644E-1,-1.6805581E0,2.020089E0,1.7191577E0,-1.3420684E-2,1.28753595E-2,-6.9179296E-1,1.359646E0,7.9575413E-1,-1.9045179E-1,-2.874065E-1,1.7641054E-3,-5.4628146E-1,-2.6038638E-1,-3.2020845E-2,-3.1770442E0,-3.0361614E-1,2.0242019E0,-2.282446E0,-1.1955124E-1,2.6275463E0,1.6288465E-1,-6.3348657E-1,-2.4868567E0,2.6137766E-1,-2.0440723E-1,2.8543675E0,-3.240266E-2,2.7367768E-1,-4.1702166E-2,-1.9376817E-1,1.14118844E-1,5.1367316E-2,2.8654E-1,-6.032725E-2,-2.8176573E-1,-1.5379186E0,1.2364168E-1,-1.4861048E-2,2.288254E0,-3.6075935E-1,-5.5761E-1,3.087126E-1,-2.6337164E-3,1.391367E-1,-2.9381266E-1,7.171652E-2,-3.2602268E-1,2.4451323E-1,6.6784985E-2,3.2653114E-1,8.491038E-2,7.6642353E-3,-2.8304762E-1,-2.2641687E-1,2.8743568E-1,-2.915265E-1,-2.0230565E-2,-2.052139E-1,6.509419E-1,5.4104283E-2,-2.7980885E-1],"split_indices":[13,11,16,3,14,11,3,19,25,28,0,5,14,6,16,4,28,25,15,6,0,0,0,4,19,0,13,0,16,13,9,18,21,25,2,0,0,27,0,0,0,0,0,0,0,0,0,12,0,20,25,0,5,0,0,0,0,0,0,0,0,0,0,0,0,0,0,0,0,0,0,0,0],"split_type":[0,0,0,0,0,0,0,0,0,0,0,0,0,0,0,0,0,0,0,0,0,0,0,0,0,0,0,0,0,0,0,0,0,0,0,0,0,0,0,0,0,0,0,0,0,0,0,0,0,0,0,0,0,0,0,0,0,0,0,0,0,0,0,0,0,0,0,0,0,0,0,0,0],"sum_hessian":[4.447759E3,5.8775005E1,4.388984E3,4.114837E1,1.7626638E1,1.7060617E1,4.371923E3,1.9752937E1,2.1395432E1,5.400709E0,1.2225929E1,5.919682E0,1.1140935E1,4.1672583E3,2.0466458E2,1.2759629E1,6.9933076E0,3.7129586E0,1.7682472E1,4.0439053E0,1.3568035E0,1.0602704E1,1.6232257E0,2.369575E0,3.550107E0,1.1947349E0,9.946199E0,4.1259277E3,4.1330513E1,1.8983653E2,1.4828044E1,1.0007466E1,2.752163E0,4.3156786E0,2.6776292E0,2.120293E0,1.5926657E0,1.6677185E1,1.0052876E0,2.2008057E0,1.8431E0,1.1922294E0,1.1773458E0,1.2091529E0,2.340954E0,1.0138258E0,8.932374E0,4.022696E1,1.1035534E0,3.7534654E0,1.8608307E2,4.084251E0,1.07437935E1,8.385007E0,1.6224592E0,1.7468125E0,1.0053505E0,1.1744722E0,3.1412063E0,1.6288368E0,1.0487925E0,1.5481942E1,1.1952424E0,1.8883499E0,3.8338608E1,2.7439888E0,1.0094767E0,1.8496815E2,1.1149096E0,1.9735086E0,2.1107426E0,1.4649731E0,9.27882E0],"tree_param":{"num_deleted":"0","num_feature":"29","num_nodes":"73","size_leaf_vector":"1"}},{"base_weights":[-9.74563E-1,2.4884696E-1,-9.9328136E-1,5.5672795E-1,-5.175401E-1,-3.414202E-1,-9.9606454E-1,8.72321E-1,3.3208865E-1,-8.4386593E-1,1.6613811E-1,2.4661112E-1,-2.6881617E-1,-1.0028187E0,-8.777505E-1,1.0124353E0,-8.639257E-2,1.3075688E-1,2.8274396E-1,-2.1499777E-2,-2.8088853E-1,-1.6817701E-1,6.365546E-1,7.4947375E-1,-2.4758604E-1,-1.0046445E0,-8.0322856E-1,-9.333811E-1,-2.1012703E-1,7.29676E-2,3.1835413E-1,7.1151227E-1,-2.6339057E-1,-1.0660956E-2,3.1757623E-1,3.426621E-1,-4.3691788E-2,-2.1191353E-1,1.9114217E-1,-8.522445E-1,-3.0204308E-1,-8.574168E-1,9.671172E-2,-1.7052361E-1,-9.489623E-1,4.1245225E-1,-5.3177357E-1,2.7861243E-1,-1.1110092E-1,-1.8926693E-1,1.5450403E-1,1.584607E-1,-6.862192E-2,2.201015E-1,-2.7905613E-1,1.0356953E-2,-2.7427724E-1,-2.1510364E-1,2.101031E-1,-2.879702E-1,-9.090026E-2,-2.7503747E-1,6.9668114E-2],"categories":[],"categories_nodes":[],"categories_segments":[],"categories_sizes":[],"default_left":[0,0,0,0,0,0,0,0,0,0,0,0,0,0,0,0,0,0,0,0,0,0,0,0,0,0,0,0,0,0,0,0,0,0,0,0,0,0,0,0,0,0,0,0,0,0,0,0,0,0,0,0,0,0,0,0,0,0,0,0,0,0,0],"id":7,"left_children":[1,3,5,7,9,11,13,15,17,19,21,23,-1,25,27,29,-1,31,-1,-1,-1,-1,33,35,37,39,41,43,45,-1,-1,47,49,-1,-1,-1,-1,-1,51,53,-1,55,-1,57,59,-1,61,-1,-1,-1,-1,-1,-1,-1,-1,-1,-1,-1,-1,-1,-1,-1,-1],"loss_changes":[7.657544E1,1.2328466E1,5.616211E0,2.3252792E0,3.5185485E0,5.2694125E0,1.7316895E0,2.6851206E0,2.7232122E0,6.7623186E-1,2.3150468E0,2.2476218E0,0E0,3.173828E-1,6.657501E0,2.4275494E-1,0E0,4.4400797E0,0E0,0E0,0E0,0E0,1.1567265E0,1.6994386E0,1.1286707E0,1.496582E-1,2.2863579E0,1.8594208E0,8.625004E0,0E0,0E0,2.1723387E0,3.6996398E0,0E0,0E0,0E0,0E0,0E0,5.893382E-1,6.775444E0,0E0,1.6393452E0,0E0,2.7022138E0,8.850708E-1,0E0,4.211399E0,0E0,0E0,0E0,0E0,0E0,0E0,0E0,0E0,0E0,0E0,0E0,0E0,0E0,0E0,0E0,0E0],"parents":[2147483647,0,0,1,1,2,2,3,3,4,4,5,5,6,6,7,7,8,8,9,9,10,10,11,11,13,13,14,14,15,15,17,17,22,22,23,23,24,24,25,25,26,26,27,27,28,28,31,31,32,32,38,38,39,39,41,41,43,43,44,44,46,46],"right_children":[2,4,6,8,10,12,14,16,18,20,22,24,-1,26,28,30,-1,32,-1,-1,-1,-1,34,36,38,40,42,44,46,-1,-1,48,50,-1,-1,-1,-1,-1,52,54,-1,56,-1,58,60,-1,62,-1,-1,-1,-1,-1,-1,-1,-1,-1,-1,-1,-1,-1,-1,-1,-1],"split_conditions":[-3.7718112E0,3.171347E-1,-1.8999653E0,5.6716424E-1,2.53599E0,-8.5768735E-1,1.7285569E0,1.217293E0,2.3049197E0,5.312693E-1,1.6035484E0,-5.710323E-1,-2.6881617E-1,2.020089E0,1.7191577E0,4.615964E-1,-8.639257E-2,4.0546438E-1,2.8274396E-1,-2.1499777E-2,-2.8088853E-1,-1.6817701E-1,-2.8438193E-1,2.2532327E-1,3.5871354E-1,-1.2781354E0,2.0242019E0,-2.282446E0,2.006556E0,7.29676E-2,3.1835413E-1,7.557087E-1,1.28753595E-2,-1.0660956E-2,3.1757623E-1,3.426621E-1,-4.3691788E-2,-2.1191353E-1,-1.5128078E0,-1.5679529E0,-3.0204308E-1,-1.5379186E0,9.671172E-2,6.0964837E-3,2.6760354E0,4.1245225E-1,4.2730117E-1,2.7861243E-1,-1.1110092E-1,-1.8926693E-1,1.5450403E-1,1.584607E-1,-6.862192E-2,2.201015E-1,-2.7905613E-1,1.0356953E-2,-2.7427724E-1,-2.1510364E-1,2.101031E-1,-2.879702E-1,-9.090026E-2,-2.7503747E-1,6.9668114E-2],"split_indices":[13,6,16,27,3,11,3,15,20,6,10,14,0,6,16,3,0,18,0,0,0,0,20,27,21,19,16,13,3,0,0,12,28,0,0,0,0,0,17,12,0,12,0,20,9,0,0,0,0,0,0,0,0,0,0,0,0,0,0,0,0,0,0],"split_type":[0,0,0,0,0,0,0,0,0,0,0,0,0,0,0,0,0,0,0,0,0,0,0,0,0,0,0,0,0,0,0,0,0,0,0,0,0,0,0,0,0,0,0,0,0,0,0,0,0,0,0,0,0,0,0,0,0,0,0,0,0,0,0],"sum_hessian":[3.3320815E3,5.0027897E1,3.2820537E3,3.5885265E1,1.4142633E1,1.4479256E1,3.2675745E3,1.3722907E1,2.2162357E1,9.414638E0,4.727996E0,7.297594E0,7.181661E0,3.0840405E3,1.8353389E2,1.2358019E1,1.3648887E0,1.757848E1,4.5838776E0,1.1962136E0,8.218424E0,1.782536E0,2.9454596E0,3.361056E0,3.9365382E0,3.0520874E3,3.195302E1,1.6904956E2,1.4484326E1,1.0934123E0,1.1264606E1,6.7813406E0,1.0797139E1,1.4893898E0,1.4560698E0,2.1442242E0,1.2168318E0,1.6260575E0,2.3104806E0,4.8291924E1,3.0037957E3,3.0712717E1,1.2403029E0,3.62276E0,1.654268E2,1.8911214E0,1.25932045E1,5.765411E0,1.0159297E0,7.4631524E0,3.333987E0,1.1385396E0,1.171941E0,1.8681062E0,4.6423817E1,1.8634936E0,2.8849224E1,2.3344867E0,1.2882733E0,1.6219429E2,3.2325203E0,8.240446E0,4.3527594E0],"tree_param":{"num_deleted":"0","num_feature":"29","num_nodes":"63","size_leaf_vector":"1"}},{"base_weights":[-9.6163625E-1,2.2115551E-1,-9.8270994E-1,4.9536267E-1,-5.1518744E-1,-3.023728E-1,-9.8599064E-1,7.2581977E-1,2.1238412E-1,1.24783136E-1,-2.5771657E-1,2.1191269E-1,-2.5819188E-1,-7.7262044E-1,-9.9215406E-1,2.9247287E-1,2.8867725E-1,4.869511E-1,-4.014951E-1,4.5073482E-1,-1.6518608E-1,-2.407822E-1,6.257795E-1,-8.2934487E-1,1.19256854E-1,-9.9406964E-1,-5.888285E-1,-1.763385E-1,5.8613473E-1,-4.085082E-2,2.775185E-1,1.4307272E-1,-8.5629493E-1,2.28444E-1,-1.0687662E-2,-2.0351659E-1,6.724843E-2,2.6860827E-1,-7.652199E-3,-9.107069E-1,-2.6141357E-1,-2.1766688E-1,3.317221E-1,-7.898324E-1,-2.9928595E-1,-2.745406E-1,3.791852E-1,-2.4821725E-2,2.4245428E-1,-1.8290034E-1,2.5839776E-1,-3.8025233E-1,4.2738494E-2,-2.8239557E-1,-3.6835056E-2,-2.2144906E-1,1.4563125E-1,1.317944E-1,-2.611471E-1,3.8363647E-1,-1.9069752E-1],"categories":[],"categories_nodes":[],"categories_segments":[],"categories_sizes":[],"default_left":[0,0,0,0,0,0,0,0,0,0,0,0,0,0,0,0,0,0,0,0,0,0,0,0,0,0,0,0,0,0,0,0,0,0,0,0,0,0,0,0,0,0,0,0,0,0,0,0,0,0,0,0,0,0,0,0,0,0,0,0,0],"id":8,"left_children":[1,3,5,7,9,11,13,15,17,19,-1,21,-1,23,25,-1,27,29,31,33,-1,35,37,39,41,43,45,-1,47,49,-1,-1,51,-1,-1,-1,-1,-1,-1,53,55,-1,-1,57,-1,-1,59,-1,-1,-1,-1,-1,-1,-1,-1,-1,-1,-1,-1,-1,-1],"loss_changes":[6.253418E1,9.256502E0,5.1848145E0,1.9975147E0,2.877134E0,3.9811697E0,2.447998E0,1.6535816E0,2.9299088E0,1.4089174E0,0E0,1.5913084E0,0E0,3.799286E0,1.2473145E0,0E0,2.396633E0,2.7343004E0,2.6302528E0,6.4770246E-1,0E0,1.0461884E0,7.768928E-1,2.9454079E0,5.1759787E0,9.2285156E-1,4.663716E0,0E0,1.0140448E0,3.730891E0,0E0,0E0,1.8324611E0,0E0,0E0,0E0,0E0,0E0,0E0,1.3281975E0,3.9316502E0,0E0,0E0,4.855053E0,0E0,0E0,4.603795E0,0E0,0E0,0E0,0E0,0E0,0E0,0E0,0E0,0E0,0E0,0E0,0E0,0E0,0E0],"parents":[2147483647,0,0,1,1,2,2,3,3,4,4,5,5,6,6,7,7,8,8,9,9,11,11,13,13,14,14,16,16,17,17,18,18,19,19,21,21,22,22,23,23,24,24,25,25,26,26,28,28,29,29,32,32,39,39,40,40,43,43,46,46],"right_children":[2,4,6,8,10,12,14,16,18,20,-1,22,-1,24,26,-1,28,30,32,34,-1,36,38,40,42,44,46,-1,48,50,-1,-1,52,-1,-1,-1,-1,-1,-1,54,56,-1,-1,58,-1,-1,60,-1,-1,-1,-1,-1,-1,-1,-1,-1,-1,-1,-1,-1,-1],"split_conditions":[-3.7718112E0,-1.6252177E0,-1.8999653E0,8.882717E-1,-1.20386116E-1,-8.5768735E-1,-1.8631431E0,-1.1895657E0,-2.4868567E0,8.6197406E-1,-2.5771657E-1,1.5446726E0,-2.5819188E-1,7.182577E-1,2.5615036E0,2.9247287E-1,-7.297436E-2,-4.0959942E-1,4.0546438E-1,6.1956805E-1,-1.6518608E-1,-2.9005963E-1,9.9282026E-1,1.8630875E0,-5.005011E-1,-1.2781354E0,1.7285569E0,-1.763385E-1,9.5231444E-1,2.497551E-1,2.775185E-1,1.4307272E-1,-8.0121094E-1,2.28444E-1,-1.0687662E-2,-2.0351659E-1,6.724843E-2,2.6860827E-1,-7.652199E-3,7.748641E-1,-2.857207E-1,-2.1766688E-1,3.317221E-1,-1.5679529E0,-2.9928595E-1,-2.745406E-1,8.1139994E-1,-2.4821725E-2,2.4245428E-1,-1.8290034E-1,2.5839776E-1,-3.8025233E-1,4.2738494E-2,-2.8239557E-1,-3.6835056E-2,-2.2144906E-1,1.4563125E-1,1.317944E-1,-2.611471E-1,3.8363647E-1,-1.9069752E-1],"split_indices":[13,9,16,27,19,11,13,6,2,6,0,3,0,28,16,0,26,25,18,4,0,28,26,3,0,19,3,0,10,23,0,0,5,0,0,0,0,0,0,22,11,0,0,12,0,0,1,0,0,0,0,0,0,0,0,0,0,0,0,0,0],"split_type":[0,0,0,0,0,0,0,0,0,0,0,0,0,0,0,0,0,0,0,0,0,0,0,0,0,0,0,0,0,0,0,0,0,0,0,0,0,0,0,0,0,0,0,0,0,0,0,0,0,0,0,0,0,0,0,0,0,0,0,0,0],"sum_hessian":[2.4990994E3,4.3580627E1,2.4555188E3,3.199373E1,1.1586896E1,1.2231196E1,2.4432876E3,1.6770744E1,1.5222987E1,4.272495E0,7.314401E0,6.6893E0,5.541896E0,7.214256E1,2.371145E3,9.89962E0,6.871124E0,1.0661314E1,4.5616736E0,3.106117E0,1.1663778E0,3.3945236E0,3.2947767E0,6.78945E1,4.248059E0,2.358479E3,1.26661215E1,1.4937264E0,5.3773975E0,5.2469497E0,5.4143643E0,1.5395536E0,3.02212E0,1.550074E0,1.556043E0,1.5121788E0,1.8823447E0,2.0651932E0,1.2295836E0,5.8858818E1,9.035685E0,2.4308279E0,1.8172307E0,4.4114136E1,2.3143647E3,9.513762E0,3.1523595E0,1.4965851E0,3.8808124E0,3.4168634E0,1.8300861E0,1.9501213E0,1.0719986E0,5.6470207E1,2.388612E0,5.5222235E0,3.5134609E0,2.4427285E0,4.167141E1,1.5331883E0,1.619171E0],"tree_param":{"num_deleted":"0","num_feature":"29","num_nodes":"61","size_leaf_vector":"1"}},{"base_weights":[-9.474665E-1,1.9469728E-1,-9.7096026E-1,-4.390507E-1,4.5542267E-1,-6.6109234E-1,-9.8163617E-1,1.4015427E-1,-7.729524E-1,5.189898E-1,-1.4084896E-1,2.9782936E-1,-7.3553085E-1,-7.053193E-1,-9.872253E-1,1.8637209E-1,-1.8418653E-1,-2.6587563E-2,-2.7348503E-1,6.475851E-1,7.929417E-2,-1.4007661E-1,3.2196885E-1,-8.3195674E-1,-1.9043742E-1,1.08311474E-1,-9.12714E-1,-9.8976374E-1,-4.751997E-1,7.72693E-1,1.1744157E-1,-2.9384857E-1,2.4075325E-1,-2.0874433E-1,1.5212488E-1,-9.2092717E-1,-1.450045E-2,-2.4788298E-1,3.483552E-1,-2.459578E-1,1.1645274E0,-2.9225346E-1,-1.9712465E-1,-4.6673322E-1,-2.9719138E-1,-2.6266778E-1,4.1951376E-1,2.6867363E-1,6.391703E-2,-2.0088194E-1,1.54254E-1,-2.0167334E-1,1.446809E-1,-2.883429E-1,-9.711869E-2,3.3623677E-1,-2.3128574E-1,-1.5438265E-1,3.4565172E-1,7.817102E-1,-1.5026692E-1,1.4834769E-1,-1.908054E-1,8.152501E-2,-2.2197126E-1,3.7376466E-1,-1.9090219E-1],"categories":[],"categories_nodes":[],"categories_segments":[],"categories_sizes":[],"default_left":[0,0,0,0,0,0,0,0,0,0,0,0,0,0,0,0,0,0,0,0,0,0,0,0,0,0,0,0,0,0,0,0,0,0,0,0,0,0,0,0,0,0,0,0,0,0,0,0,0,0,0,0,0,0,0,0,0,0,0,0,0,0,0,0,0,0,0],"id":9,"left_children":[1,3,5,7,9,11,13,15,17,19,-1,21,23,25,27,-1,-1,-1,-1,29,31,33,-1,35,37,39,41,43,45,47,49,51,-1,-1,-1,53,55,-1,57,-1,59,-1,61,63,-1,-1,65,-1,-1,-1,-1,-1,-1,-1,-1,-1,-1,-1,-1,-1,-1,-1,-1,-1,-1,-1,-1],"loss_changes":[5.0595825E1,6.5934825E0,5.440674E0,2.3880615E0,1.8843784E0,4.8139057E0,2.0488281E0,2.2523386E0,6.433053E-1,1.4519172E0,0E0,1.9665226E0,2.996395E0,6.6361885E0,1.7906494E0,0E0,0E0,0E0,0E0,1.2643261E0,2.1668508E0,1.9003584E0,0E0,3.674286E0,3.8228767E0,9.545769E0,1.1704826E0,3.2873535E-1,4.130497E0,9.3364716E-1,1.9305693E0,1.9254034E0,0E0,0E0,0E0,7.866745E-1,6.010649E0,0E0,4.955411E0,0E0,1.2134761E1,0E0,1.4388481E0,1.1649239E0,0E0,0E0,4.216403E0,0E0,0E0,0E0,0E0,0E0,0E0,0E0,0E0,0E0,0E0,0E0,0E0,0E0,0E0,0E0,0E0,0E0,0E0,0E0,0E0],"parents":[2147483647,0,0,1,1,2,2,3,3,4,4,5,5,6,6,7,7,8,8,9,9,11,11,12,12,13,13,14,14,19,19,20,20,21,21,23,23,24,24,25,25,26,26,27,27,28,28,29,29,30,30,31,31,35,35,36,36,38,38,40,40,42,42,43,43,46,46],"right_children":[2,4,6,8,10,12,14,16,18,20,-1,22,24,26,28,-1,-1,-1,-1,30,32,34,-1,36,38,40,42,44,46,48,50,52,-1,-1,-1,54,56,-1,58,-1,60,-1,62,64,-1,-1,66,-1,-1,-1,-1,-1,-1,-1,-1,-1,-1,-1,-1,-1,-1,-1,-1,-1,-1,-1,-1],"split_conditions":[-3.7718112E0,1.437531E0,-1.8631431E0,-1.38734E-1,9.68808E-1,-2.1917994E0,-1.2781354E0,6.708133E-1,-7.518566E-2,1.5031937E0,-1.4084896E-1,8.0416405E-1,1.8630875E0,-5.294753E-1,2.5615036E0,1.8637209E-1,-1.8418653E-1,-2.6587563E-2,-2.7348503E-1,9.0600955E-1,2.3049197E0,3.9218447E-1,3.2196885E-1,3.8241845E-1,2.0891567E-1,3.2047194E-1,-8.906103E-1,-3.9934812E0,1.7285569E0,1.0189233E0,-4.7010332E-1,-1.3749422E0,2.4075325E-1,-2.0874433E-1,1.5212488E-1,7.2510266E-1,-1.2899532E0,-2.4788298E-1,-2.0157697E0,-2.459578E-1,-1.8176626E-1,-2.9225346E-1,-5.452168E-1,-2.107718E0,-2.9719138E-1,-2.6266778E-1,-7.238444E-3,2.6867363E-1,6.391703E-2,-2.0088194E-1,1.54254E-1,-2.0167334E-1,1.446809E-1,-2.883429E-1,-9.711869E-2,3.3623677E-1,-2.3128574E-1,-1.5438265E-1,3.4565172E-1,7.817102E-1,-1.5026692E-1,1.4834769E-1,-1.908054E-1,8.152501E-2,-2.2197126E-1,3.7376466E-1,-1.9090219E-1],"split_indices":[13,3,13,6,0,11,19,19,19,27,0,20,3,11,16,0,0,0,0,12,20,21,0,28,0,3,0,6,3,14,25,4,0,0,0,11,9,0,18,0,12,0,14,24,0,0,7,0,0,0,0,0,0,0,0,0,0,0,0,0,0,0,0,0,0,0,0],"split_type":[0,0,0,0,0,0,0,0,0,0,0,0,0,0,0,0,0,0,0,0,0,0,0,0,0,0,0,0,0,0,0,0,0,0,0,0,0,0,0,0,0,0,0,0,0,0,0,0,0,0,0,0,0,0,0,0,0,0,0,0,0,0,0,0,0,0,0],"sum_hessian":[1.8774847E3,3.769374E1,1.839791E3,1.0787789E1,2.6905952E1,6.3370964E1,1.77642E3,4.1570263E0,6.630763E0,2.5586355E1,1.3195976E0,4.3487725E0,5.9022194E1,3.7741413E1,1.7386786E3,2.64551E0,1.5115163E0,1.3933802E0,5.237383E0,1.9430748E1,6.1556067E0,3.3028452E0,1.0459273E0,4.9703487E1,9.318707E0,7.7632284E0,2.9978186E1,1.729173E3,9.505623E0,1.5350653E1,4.0800953E0,4.452194E0,1.7034122E0,1.7364849E0,1.5663604E0,4.471068E1,4.9928064E0,4.0296607E0,5.289047E0,4.2511883E0,3.5120397E0,2.7274162E1,2.7040246E0,3.7778945E0,1.7253951E3,6.5818405E0,2.923783E0,1.2094611E1,3.256041E0,1.1369134E0,2.943182E0,3.0829446E0,1.3692497E0,4.131882E1,3.391858E0,1.8038832E0,3.188923E0,2.7241938E0,2.564853E0,1.5801015E0,1.9319383E0,1.0005918E0,1.7034327E0,1.0215269E0,2.7563677E0,1.5391701E0,1.3846128E0],"tree_param":{"num_deleted":"0","num_feature":"29","num_nodes":"67","size_leaf_vector":"1"}},{"base_weights":[-9.3069637E-1,1.5593556E-1,-9.575194E-1,4.0333518E-1,-4.4687796E-1,-6.01834E-1,-9.709513E-1,1.7048389E-1,7.008208E-1,-7.7309555E-1,1.2157228E-1,2.8596115E-1,-6.77037E-1,-9.8288244E-1,-7.6862556E-1,5.142562E-1,-2.1346025E-1,1.4863111E-1,2.737586E-1,-2.6152897E-1,-2.9483868E-2,1.9074294E-1,-3.392591E-1,6.694233E-1,-1.4791337E-1,-7.84878E-1,-1.7135745E-1,-6.924247E-1,-9.885659E-1,2.5441292E-1,-8.378654E-1,-1.6592148E-1,7.766356E-1,1.7636773E-1,-4.2407352E-1,-1.14835374E-1,2.0169841E-1,2.2106096E-2,-1.7005134E-1,3.3621645E-1,1.503574E-2,-9.161478E-1,-1.368514E-1,-6.7130804E-1,3.735369E-1,4.2079076E-1,-8.2008994E-1,-9.908712E-1,-6.6258526E-1,3.785411E-1,-1.8067868E-1,-8.9153105E-1,-3.140092E-2,6.336398E-2,-1.4292009E-1,3.1156184E-2,2.718237E-1,-2.2138856E-1,1.15277536E-1,-2.9144892E-1,-1.3906856E-1,1.6459277E-1,-2.37224E-1,-2.4335223E-1,-6.197874E-3,3.1872216E-1,-1.9940867E-1,4.419747E-1,-1.8208994E-1,4.638347E-2,-2.679336E-1,-1.9138588E-1,-2.9773033E-1,1.7889407E-1,-2.723141E-1,-2.7538264E-1,5.2987706E-2,2.5072694E-1,-2.2716807E-1],"categories":[],"categories_nodes":[],"categories_segments":[],"categories_sizes":[],"default_left":[0,0,0,0,0,0,0,0,0,0,0,0,0,0,0,0,0,0,0,0,0,0,0,0,0,0,0,0,0,0,0,0,0,0,0,0,0,0,0,0,0,0,0,0,0,0,0,0,0,0,0,0,0,0,0,0,0,0,0,0,0,0,0,0,0,0,0,0,0,0,0,0,0,0,0,0,0,0,0],"id":10,"left_children":[1,3,5,7,9,11,13,15,17,19,21,23,25,27,29,31,33,35,-1,-1,-1,-1,37,39,-1,41,43,45,47,49,51,53,55,-1,57,-1,-1,-1,-1,-1,-1,59,61,63,65,67,69,71,73,-1,-1,75,77,-1,-1,-1,-1,-1,-1,-1,-1,-1,-1,-1,-1,-1,-1,-1,-1,-1,-1,-1,-1,-1,-1,-1,-1,-1,-1],"loss_changes":[4.144055E1,5.398115E0,6.0214844E0,1.6352792E0,2.0698736E0,3.7284832E0,2.4569092E0,2.1597288E0,1.1270328E0,3.7413883E-1,1.3411696E0,1.7751614E0,2.5434837E0,1.3840332E0,5.787224E0,1.6436005E0,1.606872E0,1.4228703E0,0E0,0E0,0E0,0E0,3.384338E-1,9.684471E-1,0E0,3.2939796E0,2.9507506E0,4.237199E0,2.6513672E-1,5.72681E0,3.1718864E0,4.7375605E-1,4.5463228E-1,0E0,2.047086E0,0E0,0E0,0E0,0E0,0E0,0E0,3.8255692E-1,3.995808E0,4.8614812E-1,4.557495E0,4.656776E0,1.9108925E0,3.7841797E-2,4.1308203E0,0E0,0E0,2.116768E0,4.188698E0,0E0,0E0,0E0,0E0,0E0,0E0,0E0,0E0,0E0,0E0,0E0,0E0,0E0,0E0,0E0,0E0,0E0,0E0,0E0,0E0,0E0,0E0,0E0,0E0,0E0,0E0],"parents":[2147483647,0,0,1,1,2,2,3,3,4,4,5,5,6,6,7,7,8,8,9,9,10,10,11,11,12,12,13,13,14,14,15,15,16,16,17,17,22,22,23,23,25,25,26,26,27,27,28,28,29,29,30,30,31,31,32,32,34,34,41,41,42,42,43,43,44,44,45,45,46,46,47,47,48,48,51,51,52,52],"right_children":[2,4,6,8,10,12,14,16,18,20,22,24,26,28,30,32,34,36,-1,-1,-1,-1,38,40,-1,42,44,46,48,50,52,54,56,-1,58,-1,-1,-1,-1,-1,-1,60,62,64,66,68,70,72,74,-1,-1,76,78,-1,-1,-1,-1,-1,-1,-1,-1,-1,-1,-1,-1,-1,-1,-1,-1,-1,-1,-1,-1,-1,-1,-1,-1,-1,-1],"split_conditions":[-3.7718112E0,-1.7335463E0,-1.8631431E0,3.1118824E0,-2.2306778E-1,-2.1917994E0,1.7285569E0,1.3480146E0,-4.185082E-1,7.2180617E-1,-7.0337576E-1,2.480678E-1,1.8630875E0,-1.2781354E0,-1.5739322E0,8.995112E-1,-2.9323432E-1,-2.7344906E-1,2.737586E-1,-2.6152897E-1,-2.9483868E-2,1.9074294E-1,7.909607E-1,-5.710323E-1,-1.4791337E-1,7.152729E-2,1.2086898E0,-1.5679529E0,2.020089E0,2.2167876E0,1.80091E0,3.5563502E-1,9.821848E-1,1.7636773E-1,1.28753595E-2,-1.14835374E-1,2.0169841E-1,2.2106096E-2,-1.7005134E-1,3.3621645E-1,1.503574E-2,5.1904786E-1,1.6019794E-1,4.066888E-1,-1.0876251E-1,-1.1822703E-1,-1.8697809E0,-2.653147E0,-1.1129589E0,3.785411E-1,-1.8067868E-1,1.5031937E0,-1.2527466E-1,6.336398E-2,-1.4292009E-1,3.1156184E-2,2.718237E-1,-2.2138856E-1,1.15277536E-1,-2.9144892E-1,-1.3906856E-1,1.6459277E-1,-2.37224E-1,-2.4335223E-1,-6.197874E-3,3.1872216E-1,-1.9940867E-1,4.419747E-1,-1.8208994E-1,4.638347E-2,-2.679336E-1,-1.9138588E-1,-2.9773033E-1,1.7889407E-1,-2.723141E-1,-2.7538264E-1,5.2987706E-2,2.5072694E-1,-2.2716807E-1],"split_indices":[13,9,13,3,20,11,3,1,25,18,12,6,3,19,7,3,7,14,0,0,0,0,15,14,0,28,17,12,6,3,16,27,10,0,28,0,0,0,0,0,0,18,10,23,19,5,18,18,25,0,0,27,5,0,0,0,0,0,0,0,0,0,0,0,0,0,0,0,0,0,0,0,0,0,0,0,0,0,0],"split_type":[0,0,0,0,0,0,0,0,0,0,0,0,0,0,0,0,0,0,0,0,0,0,0,0,0,0,0,0,0,0,0,0,0,0,0,0,0,0,0,0,0,0,0,0,0,0,0,0,0,0,0,0,0,0,0,0,0,0,0,0,0,0,0,0,0,0,0,0,0,0,0,0,0,0,0,0,0,0,0],"sum_hessian":[1.4156678E3,3.3987392E1,1.3816805E3,2.4332176E1,9.655214E0,5.1945168E1,1.3297354E3,1.45312195E1,9.800958E0,5.9059496E0,3.7492645E0,3.837674E0,4.8107494E1,1.2520446E3,7.769081E1,7.487621E0,7.043598E0,3.1879642E0,6.6129937E0,4.8979473E0,1.0080022E0,1.5925033E0,2.1567612E0,2.666011E0,1.1716627E0,3.9196365E1,8.911127E0,2.6386303E1,1.2256582E3,4.755314E0,7.29355E1,2.1866639E0,5.3009567E0,1.0931159E0,5.9504824E0,1.715873E0,1.4720912E0,1.0065567E0,1.1502044E0,1.0738388E0,1.5921723E0,3.2249817E1,6.9465485E0,4.526231E0,4.3848968E0,2.4784715E0,2.3907831E1,1.2150262E3,1.0632001E1,1.9680799E0,2.7872338E0,6.828598E1,4.6495233E0,1.131709E0,1.054955E0,1.1461512E0,4.1548057E0,4.348821E0,1.6016613E0,2.7714016E1,4.5358024E0,3.4699159E0,3.4766328E0,3.5223382E0,1.0038925E0,2.6219444E0,1.7629523E0,1.0103643E0,1.4681073E0,1.5884055E0,2.2319426E1,7.1621203E0,1.2078641E3,1.4993211E0,9.13268E0,6.677553E1,1.5104488E0,2.049497E0,2.6000264E0],"tree_param":{"num_deleted":"0","num_feature":"29","num_nodes":"79","size_leaf_vector":"1"}},{"base_weights":[-9.103778E-1,1.4170648E-1,-9.4087136E-1,3.7488642E-1,-4.016929E-1,-5.4181457E-1,-9.57743E-1,1.0705707E-1,5.8666945E-1,1.18357725E-1,-7.178447E-1,2.005858E-1,-5.9081775E-1,-9.7747076E-1,-7.581349E-1,4.832795E-1,-2.4936526E-1,8.472083E-1,1.4040904E-1,4.2274517E-1,-1.2118519E-1,-1.6295655E-2,-2.50516E-1,-6.7818815E-1,2.7619982E-2,-9.816221E-1,-5.4069495E-1,1.2589195E-1,-8.218423E-1,2.1589358E-1,-2.7079472E-2,2.54148E-1,-7.194356E-1,2.8858414E-1,4.0913086E-2,-1.13063954E-1,5.006208E-1,-3.8269393E-2,2.2248013E-1,-8.2031035E-1,-2.145939E-1,-2.1912311E-1,6.564027E-1,-7.1021414E-1,-2.9587805E-1,-7.830904E-1,1.3326126E-1,5.0708985E-1,-4.4101855E-1,-5.093499E-1,-9.290802E-1,-7.319528E-2,1.5841427E-1,-1.0782227E-2,-2.961948E-1,1.9606383E-1,2.4763377E-2,-2.7337265E-1,-6.436322E-2,-1.4457527E-1,1.4251511E-1,4.3984038E-1,-1.3048999E-1,2.3930137E-1,-2.5829992E-1,-2.6406223E-1,-1.3813211E-3,2.0716183E-1,-2.524975E-1,1.5814117E-1,-2.1843639E-1,-2.830798E-1,-3.6336049E-3],"categories":[],"categories_nodes":[],"categories_segments":[],"categories_sizes":[],"default_left":[0,0,0,0,0,0,0,0,0,0,0,0,0,0,0,0,0,0,0,0,0,0,0,0,0,0,0,0,0,0,0,0,0,0,0,0,0,0,0,0,0,0,0,0,0,0,0,0,0,0,0,0,0,0,0,0,0,0,0,0,0,0,0,0,0,0,0,0,0,0,0,0,0],"id":11,"left_children":[1,3,5,7,9,11,13,15,17,19,21,-1,23,25,27,29,31,33,35,37,-1,-1,-1,39,41,43,45,47,49,-1,-1,51,53,-1,-1,-1,55,-1,-1,57,59,-1,61,63,-1,65,-1,-1,67,69,71,-1,-1,-1,-1,-1,-1,-1,-1,-1,-1,-1,-1,-1,-1,-1,-1,-1,-1,-1,-1,-1,-1],"loss_changes":[3.455249E1,4.0898504E0,6.501709E0,1.2004535E0,1.6991298E0,3.0405617E0,3.1934814E0,1.603263E0,1.3011036E0,8.9737606E-1,4.4050145E-1,0E0,2.3635988E0,1.1116943E0,5.4157486E0,8.403591E-1,1.6829209E0,4.8155785E-1,1.2509291E0,6.8701583E-1,0E0,0E0,0E0,2.3318844E0,3.497914E0,4.2755127E-1,2.9153986E0,7.1378536E0,2.4796677E0,0E0,0E0,6.471659E-1,6.124526E-1,0E0,0E0,0E0,1.883741E-1,0E0,0E0,1.389719E0,2.1251342E0,0E0,4.162172E0,4.9222984E0,0E0,6.758261E-1,0E0,0E0,3.3391943E0,5.9907026E0,8.458328E-1,0E0,0E0,0E0,0E0,0E0,0E0,0E0,0E0,0E0,0E0,0E0,0E0,0E0,0E0,0E0,0E0,0E0,0E0,0E0,0E0,0E0,0E0],"parents":[2147483647,0,0,1,1,2,2,3,3,4,4,5,5,6,6,7,7,8,8,9,9,10,10,12,12,13,13,14,14,15,15,16,16,17,17,18,18,19,19,23,23,24,24,25,25,26,26,27,27,28,28,31,31,32,32,36,36,39,39,40,40,42,42,43,43,45,45,48,48,49,49,50,50],"right_children":[2,4,6,8,10,12,14,16,18,20,22,-1,24,26,28,30,32,34,36,38,-1,-1,-1,40,42,44,46,48,50,-1,-1,52,54,-1,-1,-1,56,-1,-1,58,60,-1,62,64,-1,66,-1,-1,68,70,72,-1,-1,-1,-1,-1,-1,-1,-1,-1,-1,-1,-1,-1,-1,-1,-1,-1,-1,-1,-1,-1,-1],"split_conditions":[-3.7718112E0,-1.9431003E0,-1.8631431E0,2.9243472E0,-1.6684581E-1,-2.205637E0,1.144587E0,1.3480146E0,2.607229E0,-3.4411377E-1,-1.7335463E0,2.005858E-1,7.182577E-1,2.020089E0,-1.5739322E0,9.1071445E-1,5.4543164E-2,-2.0376196E0,-4.7010332E-1,-7.618698E-1,-1.2118519E-1,-1.6295655E-2,-2.50516E-1,1.2715857E0,-5.236539E-2,-1.2781354E0,8.37901E-1,-8.615503E-1,-5.487959E-2,2.1589358E-1,-2.7079472E-2,-1.276442E0,9.226787E-1,2.8858414E-1,4.0913086E-2,-1.13063954E-1,1.8032824E0,-3.8269393E-2,2.2248013E-1,-1.9748724E0,1.4010695E0,-2.1912311E-1,-2.8325742E-1,-3.4875154E-1,-2.9587805E-1,7.5463504E-1,1.3326126E-1,5.0708985E-1,-3.4875154E-1,-1.8697809E0,1.9764402E0,-7.319528E-2,1.5841427E-1,-1.0782227E-2,-2.961948E-1,1.9606383E-1,2.4763377E-2,-2.7337265E-1,-6.436322E-2,-1.4457527E-1,1.4251511E-1,4.3984038E-1,-1.3048999E-1,2.3930137E-1,-2.5829992E-1,-2.6406223E-1,-1.3813211E-3,2.0716183E-1,-2.524975E-1,1.5814117E-1,-2.1843639E-1,-2.830798E-1,-3.6336049E-3],"split_indices":[13,11,13,3,14,6,3,1,26,28,9,0,28,6,7,21,12,9,25,23,0,0,0,3,19,19,18,13,5,0,0,12,20,0,0,0,18,0,0,13,10,0,25,28,0,8,0,0,28,18,4,0,0,0,0,0,0,0,0,0,0,0,0,0,0,0,0,0,0,0,0,0,0],"split_type":[0,0,0,0,0,0,0,0,0,0,0,0,0,0,0,0,0,0,0,0,0,0,0,0,0,0,0,0,0,0,0,0,0,0,0,0,0,0,0,0,0,0,0,0,0,0,0,0,0,0,0,0,0,0,0,0,0,0,0,0,0,0,0,0,0,0,0,0,0,0,0,0,0],"sum_hessian":[1.071857E3,3.0088839E1,1.0417682E3,2.1271194E1,8.817645E0,4.3601288E1,9.9816693E2,1.0057535E1,1.1213658E1,3.570318E0,5.247327E0,1.2044952E0,4.2396793E1,9.048421E2,9.33248E1,4.719713E0,5.3378224E0,6.512831E0,4.7008276E0,2.3761704E0,1.1941476E0,1.0074607E0,4.2398663E0,3.7063934E1,5.332859E0,8.9508734E2,9.754792E0,6.2077475E0,8.711705E1,3.1619112E0,1.5578018E0,2.7990139E0,2.5388083E0,5.3034973E0,1.2093339E0,1.9106826E0,2.790145E0,1.091789E0,1.2843813E0,2.7778528E1,9.285406E0,2.3446434E0,2.988216E0,1.762846E1,8.7745886E2,7.992617E0,1.7621754E0,1.1241161E0,5.0836315E0,2.372675E1,6.33903E1,1.0317761E0,1.7672379E0,1.0342062E0,1.5046022E0,1.6305093E0,1.1596357E0,2.3714462E1,4.064065E0,6.9086475E0,2.376759E0,1.5183209E0,1.4698949E0,1.2125566E0,1.6415905E1,6.989948E0,1.0026691E0,1.1400648E0,3.9435668E0,3.8895326E0,1.9837217E1,6.2373646E1,1.0166531E0],"tree_param":{"num_deleted":"0","num_feature":"29","num_nodes":"73","size_leaf_vector":"1"}},{"base_weights":[-8.851752E-1,-2.2318141E-1,-9.414544E-1,3.2780853E-1,-5.1357675E-1,-9.670989E-1,-6.991778E-1,1.7327403E-1,3.2093677E-1,-7.595036E-1,-1.7281887E-1,-9.725918E-1,-4.726536E-1,1.2515806E-1,-7.714078E-1,4.537466E-1,-1.3273078E-1,-1.7842722E-1,-2.7527964E-1,-2.3045416E-1,6.390604E-2,-6.392751E-1,-2.9367217E-1,1.6522591E-1,-7.487506E-1,7.4979573E-1,-2.1567672E-1,-4.3392947E-1,-9.035037E-1,2.5330132E-1,-4.0688116E-2,-5.1808435E-1,3.5498515E-1,3.068697E-1,-6.752969E-1,4.625843E-1,-5.4119706E-1,-8.782161E-1,3.983428E-1,-1.58702E-3,-2.573015E-1,1.3819406E0,-1.1139064E-1,3.266278E-1,-7.4821764E-1,-5.123531E-1,-2.937261E-1,8.8479884E-2,-1.9525678E-1,-2.700087E-1,1.1505765E-2,-6.2283944E-2,1.8620466E-1,-2.3699324E-1,-3.993401E-2,2.8373262E-1,-6.665994E-2,-2.484275E-1,1.423625E-1,-4.94341E-2,-2.7756545E-1,-1.8241146E-1,4.3692568E-1,4.758063E-2,5.888668E-1,3.1441236E-1,-1.4889394E-1,8.9235585E-3,-2.7775943E-1,-2.631723E-1,1.1581502E-1],"categories":[],"categories_nodes":[],"categories_segments":[],"categories_sizes":[],"default_left":[0,0,0,0,0,0,0,0,0,0,0,0,0,0,0,0,0,0,0,0,0,0,0,0,0,0,0,0,0,0,0,0,0,0,0,0,0,0,0,0,0,0,0,0,0,0,0,0,0,0,0,0,0,0,0,0,0,0,0,0,0,0,0,0,0,0,0,0,0,0,0],"id":12,"left_children":[1,3,5,7,9,11,13,15,-1,17,19,21,23,25,27,29,31,33,-1,-1,35,37,-1,-1,39,41,-1,43,45,-1,47,49,51,-1,53,55,57,59,61,-1,-1,63,-1,65,67,69,-1,-1,-1,-1,-1,-1,-1,-1,-1,-1,-1,-1,-1,-1,-1,-1,-1,-1,-1,-1,-1,-1,-1,-1,-1],"loss_changes":[3.0224915E1,1.0619568E1,3.9996948E0,2.4695363E0,3.485937E0,1.3814697E0,4.6005707E0,1.807331E0,0E0,2.112317E0,2.781578E0,7.836304E-1,3.0667787E0,4.205804E0,2.714695E0,2.129264E0,2.1589606E0,4.594789E0,0E0,0E0,3.8196151E0,4.1511884E0,0E0,0E0,6.2888E-1,3.6925564E0,0E0,5.390469E0,9.517937E-1,0E0,1.3677194E0,1.3685615E0,9.109059E-1,0E0,2.1998191E-1,3.339688E0,2.239695E0,2.7591228E-1,4.6740165E0,0E0,0E0,1.8780003E0,0E0,4.670671E0,2.1748657E0,3.6361651E0,0E0,0E0,0E0,0E0,0E0,0E0,0E0,0E0,0E0,0E0,0E0,0E0,0E0,0E0,0E0,0E0,0E0,0E0,0E0,0E0,0E0,0E0,0E0,0E0,0E0],"parents":[2147483647,0,0,1,1,2,2,3,3,4,4,5,5,6,6,7,7,9,9,10,10,11,11,12,12,13,13,14,14,15,15,16,16,17,17,20,20,21,21,24,24,25,25,27,27,28,28,30,30,31,31,32,32,34,34,35,35,36,36,37,37,38,38,41,41,43,43,44,44,45,45],"right_children":[2,4,6,8,10,12,14,16,-1,18,20,22,24,26,28,30,32,34,-1,-1,36,38,-1,-1,40,42,-1,44,46,-1,48,50,52,-1,54,56,58,60,62,-1,-1,64,-1,66,68,70,-1,-1,-1,-1,-1,-1,-1,-1,-1,-1,-1,-1,-1,-1,-1,-1,-1,-1,-1,-1,-1,-1,-1,-1,-1],"split_conditions":[-1.8631431E0,-2.1917994E0,1.144587E0,2.3049197E0,2.0891567E-1,2.020089E0,-1.5739322E0,8.53671E-1,3.2093677E-1,-1.4709982E0,-9.785208E-1,-1.2781354E0,-1.1129589E0,-8.254729E-2,-5.487959E-2,-1.1895657E0,-1.3749422E0,1.6897543E-1,-2.7527964E-1,-2.3045416E-1,9.7916484E-1,-1.0351921E0,-2.9367217E-1,1.6522591E-1,-1.1414841E0,7.28665E-1,-2.1567672E-1,-6.999867E-1,-7.121128E-1,2.5330132E-1,1.4980103E0,-1.5166377E0,1.437531E0,3.068697E-1,1.5006839E0,2.3294735E0,3.8815042E-1,-1.8623207E0,-3.137151E-1,-1.58702E-3,-2.573015E-1,9.11928E-2,-1.1139064E-1,2.8934357E-1,-8.589986E-1,-9.082273E-1,-2.937261E-1,8.8479884E-2,-1.9525678E-1,-2.700087E-1,1.1505765E-2,-6.2283944E-2,1.8620466E-1,-2.3699324E-1,-3.993401E-2,2.8373262E-1,-6.665994E-2,-2.484275E-1,1.423625E-1,-4.94341E-2,-2.7756545E-1,-1.8241146E-1,4.3692568E-1,4.758063E-2,5.888668E-1,3.1441236E-1,-1.4889394E-1,8.9235585E-3,-2.7775943E-1,-2.631723E-1,1.1581502E-1],"split_indices":[13,11,3,20,0,6,7,27,0,9,23,19,25,12,5,6,4,15,0,0,0,0,0,0,10,1,0,11,17,0,12,5,3,0,15,16,18,17,3,0,0,14,0,13,24,17,0,0,0,0,0,0,0,0,0,0,0,0,0,0,0,0,0,0,0,0,0,0,0,0,0],"split_type":[0,0,0,0,0,0,0,0,0,0,0,0,0,0,0,0,0,0,0,0,0,0,0,0,0,0,0,0,0,0,0,0,0,0,0,0,0,0,0,0,0,0,0,0,0,0,0,0,0,0,0,0,0,0,0,0,0,0,0,0,0,0,0,0,0,0,0,0,0,0,0],"sum_hessian":[8.159054E2,6.4318085E1,7.515873E2,2.2154247E1,4.2163837E1,6.769425E2,7.4644775E1,1.9356369E1,2.7978792E0,2.3775826E1,1.8388014E1,6.685484E2,8.394134E0,5.9545712E0,6.869021E1,9.8476095E0,9.5087595E0,5.540479E0,1.8235346E1,4.5926056E0,1.3795407E1,1.4332414E1,6.54216E2,1.5720919E0,6.8220415E0,3.4863203E0,2.4682508E0,2.0528643E1,4.8161564E1,5.1061754E0,4.741434E0,5.2770195E0,4.2317395E0,1.3113134E0,4.2291656E0,8.458179E0,5.3372283E0,1.17746E1,2.557814E0,1.0057408E0,5.8163004E0,2.080524E0,1.4057964E0,5.991159E0,1.4537485E1,9.059003E0,3.9102562E1,3.3922005E0,1.3492339E0,2.7629874E0,2.5140324E0,1.427564E0,2.8041756E0,3.1135664E0,1.1155992E0,4.7355766E0,3.722603E0,4.3057985E0,1.0314294E0,1.0062792E0,1.076832E1,1.5289248E0,1.0288891E0,1.0797771E0,1.0007467E0,3.0467553E0,2.9444034E0,2.8572793E0,1.1680205E1,6.459161E0,2.5998425E0],"tree_param":{"num_deleted":"0","num_feature":"29","num_nodes":"71","size_leaf_vector":"1"}},{"base_weights":[-8.557829E-1,-1.9234662E-1,-9.216055E-1,2.80213E-1,-4.4712296E-1,-9.5417124E-1,-6.4003336E-1,1.3813432E-1,3.0808493E-1,-7.782438E-1,-1.9622058E-1,-9.6139693E-1,-4.0659598E-1,-1.7990743E-1,-7.928586E-1,-1.5219362E-1,2.4637793E-1,-1.3833767E-1,-8.885889E-1,1.0774579E-1,-5.6907684E-1,-5.716179E-1,-9.6979624E-1,-2.505387E-1,4.4692442E-1,5.291003E-1,-6.6265625E-1,1.9660367E-1,-8.492945E-1,2.1305862E-1,6.0962215E-2,-1.8130352E-1,1.3467264E-1,-6.7736305E-2,-2.7712533E-1,6.9712734E-1,-2.5760365E-1,-7.654199E-1,1.0339823E-1,2.1068129E-1,-7.763984E-1,-8.36686E-1,-9.841403E-1,4.486259E-1,-1.7818049E-1,-3.221675E-1,1.7378738E0,-2.6738063E-1,8.4932745E-2,2.9310712E-1,-1.7048483E-1,-1.3818733E-1,-9.079426E-1,1.336964E-1,-7.244051E-2,6.7358387E-1,-7.192384E-2,-2.4948592E-1,1.232206E-1,-2.6086232E-1,-3.380181E-3,2.0604713E-1,-1.485845E-1,1.882801E-2,-2.7205878E-1,-2.660654E-1,5.5224244E-2,-2.95902E-1,-1.2913206E-1,9.7995885E-2,-2.2618623E-1,8.288377E-2,7.418512E-1,-2.0577884E-1,1.9423017E-1,-2.9253545E-1,-1.2070652E-1],"categories":[],"categories_nodes":[],"categories_segments":[],"categories_sizes":[],"default_left":[0,0,0,0,0,0,0,0,0,0,0,0,0,0,0,0,0,0,0,0,0,0,0,0,0,0,0,0,0,0,0,0,0,0,0,0,0,0,0,0,0,0,0,0,0,0,0,0,0,0,0,0,0,0,0,0,0,0,0,0,0,0,0,0,0,0,0,0,0,0,0,0,0,0,0,0,0],"id":13,"left_children":[1,3,5,7,9,11,13,15,-1,17,19,21,23,25,27,-1,29,31,33,35,37,39,41,-1,43,45,47,49,51,-1,53,-1,-1,-1,-1,55,57,59,61,-1,63,65,67,-1,-1,69,71,-1,-1,-1,-1,73,75,-1,-1,-1,-1,-1,-1,-1,-1,-1,-1,-1,-1,-1,-1,-1,-1,-1,-1,-1,-1,-1,-1,-1,-1],"loss_changes":[2.7199646E1,7.090148E0,4.6166077E0,2.0732582E0,3.0018501E0,1.6227417E0,4.2266064E0,1.4312284E0,0E0,1.0090647E0,2.6611364E0,1.087738E0,3.431431E0,6.09579E0,2.7551804E0,0E0,1.3915493E0,1.2406743E0,1.0580158E-1,3.0817556E0,1.4604125E0,3.940682E0,1.1129761E-1,0E0,4.649101E0,8.128463E0,2.5074444E0,2.532866E0,1.7110767E0,0E0,1.6216248E0,0E0,0E0,0E0,0E0,8.410314E0,3.8136396E0,6.3536453E-1,1.4736468E0,0E0,1.3365512E0,2.9455109E0,1.0681152E-1,0E0,0E0,1.6917303E0,2.7498236E0,0E0,0E0,0E0,0E0,2.3954475E0,9.8321915E-1,0E0,0E0,0E0,0E0,0E0,0E0,0E0,0E0,0E0,0E0,0E0,0E0,0E0,0E0,0E0,0E0,0E0,0E0,0E0,0E0,0E0,0E0,0E0,0E0],"parents":[2147483647,0,0,1,1,2,2,3,3,4,4,5,5,6,6,7,7,9,9,10,10,11,11,12,12,13,13,14,14,16,16,17,17,18,18,19,19,20,20,21,21,22,22,24,24,25,25,26,26,27,27,28,28,30,30,35,35,36,36,37,37,38,38,40,40,41,41,42,42,45,45,46,46,51,51,52,52],"right_children":[2,4,6,8,10,12,14,16,-1,18,20,22,24,26,28,-1,30,32,34,36,38,40,42,-1,44,46,48,50,52,-1,54,-1,-1,-1,-1,56,58,60,62,-1,64,66,68,-1,-1,70,72,-1,-1,-1,-1,74,76,-1,-1,-1,-1,-1,-1,-1,-1,-1,-1,-1,-1,-1,-1,-1,-1,-1,-1,-1,-1,-1,-1,-1,-1],"split_conditions":[-1.8631431E0,-2.1917994E0,1.144587E0,2.3049197E0,-1.8818559E-1,2.020089E0,-1.8436384E-1,-1.1304328E0,3.0808493E-1,-9.7306484E-1,-3.1613924E-3,-1.2781354E0,2.535575E-1,-5.7303035E-1,-3.5274962E-1,-1.5219362E-1,-4.966253E-1,-1.1920013E0,-1.3070524E0,-2.4499753E-1,1.437531E0,-3.4875154E-1,-8.41771E-1,-2.505387E-1,-2.0930558E-1,-9.935647E-1,1.6171968E0,5.347168E-1,-2.3072655E0,2.1305862E-1,5.587865E-1,-1.8130352E-1,1.3467264E-1,-6.7736305E-2,-2.7712533E-1,5.4768723E-1,1.379302E0,4.17963E-1,2.0944917E0,2.1068129E-1,-1.8776364E0,1.4452659E0,3.4412742E0,4.486259E-1,-1.7818049E-1,-2.8139853E0,-1.5352385E-1,-2.6738063E-1,8.4932745E-2,2.9310712E-1,-1.7048483E-1,1.3451158E-1,1.0094818E0,1.336964E-1,-7.244051E-2,6.7358387E-1,-7.192384E-2,-2.4948592E-1,1.232206E-1,-2.6086232E-1,-3.380181E-3,2.0604713E-1,-1.485845E-1,1.882801E-2,-2.7205878E-1,-2.660654E-1,5.5224244E-2,-2.95902E-1,-1.2913206E-1,9.7995885E-2,-2.2618623E-1,8.288377E-2,7.418512E-1,-2.0577884E-1,1.9423017E-1,-2.9253545E-1,-1.2070652E-1],"split_indices":[13,11,3,20,0,6,7,21,0,12,14,19,14,11,28,0,23,12,11,25,3,28,13,0,12,11,21,2,18,0,7,0,0,0,0,3,17,11,3,0,15,10,28,0,0,11,16,0,0,0,0,16,10,0,0,0,0,0,0,0,0,0,0,0,0,0,0,0,0,0,0,0,0,0,0,0,0],"split_type":[0,0,0,0,0,0,0,0,0,0,0,0,0,0,0,0,0,0,0,0,0,0,0,0,0,0,0,0,0,0,0,0,0,0,0,0,0,0,0,0,0,0,0,0,0,0,0,0,0,0,0,0,0,0,0,0,0,0,0,0,0,0,0,0,0,0,0,0,0,0,0,0,0,0,0,0,0],"sum_hessian":[6.25918E2,5.6849102E1,5.69069E2,1.987853E1,3.6970573E1,5.0793414E2,6.113479E1,1.7696476E1,2.182055E0,1.5031469E1,2.1939102E1,5.00573E2,7.3611584E0,1.5785384E1,4.5349403E1,2.0120502E0,1.5684426E1,2.5422583E0,1.2489211E1,1.2477778E1,9.461325E0,1.2015946E1,4.8855707E2,4.914998E0,2.4461603E0,6.3553452E0,9.430038E0,2.3130038E0,4.30364E1,3.6710377E0,1.2013389E1,1.4012138E0,1.1410445E0,1.0030572E0,1.1486154E1,4.4273953E0,8.050383E0,7.2161946E0,2.2451305E0,1.3276408E0,1.0688306E1,5.3297344E1,4.352597E2,1.0010501E0,1.4451101E0,4.159518E0,2.1958272E0,7.6407275E0,1.7893115E0,1.007598E0,1.3054057E0,3.5346806E0,3.950172E1,5.079137E0,6.934252E0,1.1426455E0,3.28475E0,4.199366E0,3.8510165E0,6.206322E0,1.0098723E0,1.0624862E0,1.1826444E0,1.507953E0,9.180353E0,5.0924187E1,2.3731556E0,4.3275916E2,2.5005648E0,1.7593424E0,2.4001756E0,1.1950948E0,1.0007323E0,2.1574104E0,1.3772702E0,3.404906E1,5.4526577E0],"tree_param":{"num_deleted":"0","num_feature":"29","num_nodes":"77","size_leaf_vector":"1"}},{"base_weights":[-8.1890345E-1,-1.601993E-1,-8.963533E-1,3.7024814E-1,-3.4822136E-1,-9.4309604E-1,-6.0671186E-1,5.1313013E-2,7.7022696E-1,-5.586571E-1,-3.2304633E-2,-9.529373E-1,-3.240211E-1,-1.931685E-1,-8.205794E-1,2.9246023E-1,-1.6972056E-1,2.8852126E-1,-2.2738082E-3,-7.580589E-1,2.5602354E-2,1.6234702E-1,-6.427532E-1,-9.6511334E-1,-5.731185E-1,4.5837137E-1,-2.4014208E-1,6.9890374E-1,-4.9047115E-1,1.6208743E-1,-8.856801E-1,-2.1398923E-1,2.392421E-1,6.0608997E-3,-8.205175E-1,-4.2463815E-1,3.0831525E-1,-5.143069E-1,4.179624E-1,-6.0223926E-2,-2.2099157E-1,-8.096319E-1,-9.82702E-1,2.5474438E-1,-8.387168E-1,-1.7692025E-1,4.481984E-1,-1.7489876E-1,1.6173817E0,1.6142178E-1,-6.254168E-1,2.9734504E-1,-1.7835487E-1,-9.319627E-1,1.2453649E-1,7.787681E-2,-1.3227382E-1,-2.6193282E-1,-1.613271E-2,-2.1825981E-1,6.848847E-2,-2.125882E-1,1.1093664E-2,-1.633846E-1,2.0232143E-1,-2.622006E-1,4.15219E-2,-8.319093E-2,-2.9573962E-1,-1.1979155E-3,-2.7402365E-1,-2.1239935E-1,2.066689E-1,6.1777346E-2,6.7284966E-1,4.603481E-3,-2.5424182E-1,-5.0101504E-2,-2.8456804E-1],"categories":[],"categories_nodes":[],"categories_segments":[],"categories_sizes":[],"default_left":[0,0,0,0,0,0,0,0,0,0,0,0,0,0,0,0,0,0,0,0,0,0,0,0,0,0,0,0,0,0,0,0,0,0,0,0,0,0,0,0,0,0,0,0,0,0,0,0,0,0,0,0,0,0,0,0,0,0,0,0,0,0,0,0,0,0,0,0,0,0,0,0,0,0,0,0,0,0,0],"id":14,"left_children":[1,3,5,7,9,11,13,15,17,19,21,23,25,27,29,31,-1,-1,-1,33,35,37,39,41,43,45,-1,47,49,51,53,55,-1,-1,57,59,-1,61,63,-1,-1,65,67,-1,69,-1,-1,71,73,-1,75,-1,-1,77,-1,-1,-1,-1,-1,-1,-1,-1,-1,-1,-1,-1,-1,-1,-1,-1,-1,-1,-1,-1,-1,-1,-1,-1,-1],"loss_changes":[2.4658966E1,5.351758E0,5.314453E0,1.7705189E0,2.586494E0,1.9611206E0,5.4330597E0,1.4995311E0,9.3430305E-1,2.75175E0,2.09165E0,1.1405945E0,3.105044E0,6.405229E0,2.7896671E0,1.9879904E0,0E0,0E0,0E0,8.681202E-1,3.5654054E0,2.5464034E0,2.829051E-2,1.708374E-1,5.9394665E0,4.5888863E0,0E0,5.19959E0,2.7977219E0,2.7315905E0,2.7317314E0,5.8044666E-1,0E0,0E0,6.0794544E-1,1.2523795E0,0E0,4.7015584E-1,2.9184952E0,0E0,0E0,2.6591797E0,4.099121E-1,0E0,7.547426E-1,0E0,0E0,2.3489757E0,2.260993E0,0E0,2.309215E0,0E0,0E0,3.2300186E-1,0E0,0E0,0E0,0E0,0E0,0E0,0E0,0E0,0E0,0E0,0E0,0E0,0E0,0E0,0E0,0E0,0E0,0E0,0E0,0E0,0E0,0E0,0E0,0E0,0E0],"parents":[2147483647,0,0,1,1,2,2,3,3,4,4,5,5,6,6,7,7,8,8,9,9,10,10,11,11,12,12,13,13,14,14,15,15,19,19,20,20,21,21,22,22,23,23,24,24,25,25,27,27,28,28,29,29,30,30,31,31,34,34,35,35,37,37,38,38,41,41,42,42,44,44,47,47,48,48,50,50,53,53],"right_children":[2,4,6,8,10,12,14,16,18,20,22,24,26,28,30,32,-1,-1,-1,34,36,38,40,42,44,46,-1,48,50,52,54,56,-1,-1,58,60,-1,62,64,-1,-1,66,68,-1,70,-1,-1,72,74,-1,76,-1,-1,78,-1,-1,-1,-1,-1,-1,-1,-1,-1,-1,-1,-1,-1,-1,-1,-1,-1,-1,-1,-1,-1,-1,-1,-1,-1],"split_conditions":[-1.8631431E0,-1.33018E0,9.8421913E-1,-1.3749422E0,1.3390442E0,2.020089E0,-4.4839177E-1,-2.4868567E0,-8.499934E-1,4.9737714E-2,7.818265E-1,9.226787E-1,-6.9179296E-1,-7.546425E-1,-3.5023084E-1,-2.8182688E-1,-1.6972056E-1,2.8852126E-1,-2.2738082E-3,-8.6412376E-1,1.7178762E-1,-9.785208E-1,-1.1665146E0,-8.41771E-1,-1.3448716E0,1.8136178E-1,-2.4014208E-1,1.832858E-1,-1.2763172E0,-5.612156E-1,2.6275463E0,9.338777E-1,2.392421E-1,6.0608997E-3,7.2510266E-1,7.278353E-1,3.0831525E-1,-9.151066E-2,-6.492361E-2,-6.0223926E-2,-2.2099157E-1,1.4452659E0,-1.8149316E0,2.5474438E-1,-1.5563813E0,-1.7692025E-1,4.481984E-1,5.927178E-1,-2.8139853E0,1.6142178E-1,-3.2264403E-1,2.9734504E-1,-1.7835487E-1,-1.3692852E0,1.2453649E-1,7.787681E-2,-1.3227382E-1,-2.6193282E-1,-1.613271E-2,-2.1825981E-1,6.848847E-2,-2.125882E-1,1.1093664E-2,-1.633846E-1,2.0232143E-1,-2.622006E-1,4.15219E-2,-8.319093E-2,-2.9573962E-1,-1.1979155E-3,-2.7402365E-1,-2.1239935E-1,2.066689E-1,6.1777346E-2,6.7284966E-1,4.603481E-3,-2.5424182E-1,-5.0101504E-2,-2.8456804E-1],"split_indices":[13,6,3,4,3,6,11,2,2,28,12,20,25,13,28,21,0,0,0,6,11,23,8,13,12,13,0,27,23,8,18,27,0,0,11,21,0,20,10,0,0,10,19,0,17,0,0,28,11,0,28,0,0,9,0,0,0,0,0,0,0,0,0,0,0,0,0,0,0,0,0,0,0,0,0,0,0,0,0],"split_type":[0,0,0,0,0,0,0,0,0,0,0,0,0,0,0,0,0,0,0,0,0,0,0,0,0,0,0,0,0,0,0,0,0,0,0,0,0,0,0,0,0,0,0,0,0,0,0,0,0,0,0,0,0,0,0,0,0,0,0,0,0,0,0,0,0,0,0,0,0,0,0,0,0,0,0,0,0,0,0],"sum_hessian":[4.85167E2,5.1366642E1,4.3380035E2,1.3188918E1,3.8177723E1,3.715784E2,6.2221928E1,7.9655986E0,5.2233195E0,2.2453094E1,1.572463E1,3.6523312E2,6.3453045E0,2.185854E1,4.0363388E1,6.1055393E0,1.860059E0,4.001581E0,1.2217385E0,1.6518148E1,5.934945E0,1.2479415E1,3.2452157E0,3.5239526E2,1.2837857E1,2.4159586E0,3.9293458E0,5.126223E0,1.6732317E1,2.4153228E0,3.7948063E1,3.3361616E0,2.769378E0,1.277423E0,1.52407255E1,4.4926844E0,1.442261E0,3.1441977E0,9.335217E0,1.118341E0,2.1268747E0,4.0592754E1,3.118025E2,1.6744016E0,1.1163455E1,1.4147292E0,1.0012294E0,3.04188E0,2.084343E0,1.5941931E0,1.51381235E1,1.004559E0,1.4107637E0,3.6918064E1,1.0300013E0,1.0340977E0,2.302064E0,1.4132622E1,1.1081034E0,2.9909394E0,1.5017449E0,2.1137297E0,1.0304679E0,1.7274301E0,7.607787E0,3.808495E1,2.5078056E0,1.7585894E0,3.100439E2,1.0034384E0,1.0160017E1,1.9925334E0,1.0493466E0,1.0481712E0,1.0361717E0,4.135544E0,1.100258E1,1.0189215E0,3.589914E1],"tree_param":{"num_deleted":"0","num_feature":"29","num_nodes":"79","size_leaf_vector":"1"}},{"base_weights":[-7.776803E-1,-2.1344057E-1,-8.7915224E-1,-7.4240917E-1,1.4679384E-2,-2.4436934E-1,-9.0560657E-1,-1.0385966E-1,-8.6802435E-1,2.8431228E-1,-2.8119084E-1,4.4973287E-1,-2.6265916E-1,-9.3594754E-1,-4.275437E-1,1.5158732E-1,-1.885455E-1,-2.790197E-1,-1.7777374E-2,1.2348452E0,9.8486654E-2,-7.4579656E-1,-7.3388E-2,1.6797717E0,-3.5025945E-1,-1.21922076E-1,-9.423605E-1,-5.8602035E-1,2.7042916E-1,4.859048E-1,6.2300503E-2,6.6092175E-1,-1.1901652E-1,-4.019596E-2,-2.5332192E-1,6.6887265E-1,-3.344837E-1,6.6252154E-1,1.1096541E-1,1.7601754E-1,-2.3427083E-1,1.4957707E-1,-1.7595084E-1,-9.5183426E-1,-3.5870275E-1,1.7421001E-1,-7.008969E-1,-5.5272084E-2,3.663598E-1,7.005732E-2,-1.5144588E-1,-4.073102E-2,4.4295704E-1,1.4823346E-1,-1.7260468E-1,-2.8651738E-1,-9.875017E-2,-2.3424247E-1,1.4287147E-1,5.025215E-2,-2.6072153E-1],"categories":[],"categories_nodes":[],"categories_segments":[],"categories_sizes":[],"default_left":[0,0,0,0,0,0,0,0,0,0,0,0,0,0,0,0,0,0,0,0,0,0,0,0,0,0,0,0,0,0,0,0,0,0,0,0,0,0,0,0,0,0,0,0,0,0,0,0,0,0,0,0,0,0,0,0,0,0,0,0,0],"id":15,"left_children":[1,3,5,7,9,11,13,15,17,19,21,23,-1,25,27,-1,-1,-1,-1,29,31,33,35,37,39,41,43,45,-1,-1,-1,47,49,-1,-1,51,53,-1,-1,-1,-1,-1,-1,55,57,-1,59,-1,-1,-1,-1,-1,-1,-1,-1,-1,-1,-1,-1,-1,-1],"loss_changes":[2.1569519E1,7.159746E0,5.1819916E0,1.3432484E0,3.4603527E0,6.633249E0,4.0749207E0,1.6193504E0,6.8734455E-1,3.8821335E0,1.9444091E0,7.9130945E0,0E0,1.3951721E0,4.793809E0,0E0,0E0,0E0,0E0,1.0946164E0,2.5310383E0,2.6634288E-1,3.2114575E0,1.333849E0,2.6119866E0,1.2753596E0,1.244751E0,2.9135356E0,0E0,0E0,0E0,2.944521E0,2.1993847E0,0E0,0E0,3.0242043E0,2.693494E0,0E0,0E0,0E0,0E0,0E0,0E0,2.5100708E-1,2.552212E0,0E0,2.6981544E0,0E0,0E0,0E0,0E0,0E0,0E0,0E0,0E0,0E0,0E0,0E0,0E0,0E0,0E0],"parents":[2147483647,0,0,1,1,2,2,3,3,4,4,5,5,6,6,7,7,8,8,9,9,10,10,11,11,13,13,14,14,19,19,20,20,21,21,22,22,23,23,24,24,25,25,26,26,27,27,31,31,32,32,35,35,36,36,43,43,44,44,46,46],"right_children":[2,4,6,8,10,12,14,16,18,20,22,24,-1,26,28,-1,-1,-1,-1,30,32,34,36,38,40,42,44,46,-1,-1,-1,48,50,-1,-1,52,54,-1,-1,-1,-1,-1,-1,56,58,-1,60,-1,-1,-1,-1,-1,-1,-1,-1,-1,-1,-1,-1,-1,-1],"split_conditions":[-1.3940638E0,2.6339847E-1,-1.2781354E0,-1.4709982E0,3.4488392E-1,-7.504703E-2,1.9357407E0,1.6897543E-1,1.0655162E0,-9.362324E-1,-6.826717E-2,-7.2209626E-1,-2.6265916E-1,-2.653147E0,1.0334257E0,1.5158732E-1,-1.885455E-1,-2.790197E-1,-1.7777374E-2,1.1646209E-1,-9.2375976E-1,-3.5015085E-1,8.796777E-3,-6.6068435E-1,-8.615503E-1,-2.4375692E-2,2.020089E0,-2.2406054E0,2.7042916E-1,4.859048E-1,6.2300503E-2,-7.06385E-1,-9.468075E-1,-4.019596E-2,-2.5332192E-1,5.9088653E-1,-3.995805E-1,6.6252154E-1,1.1096541E-1,1.7601754E-1,-2.3427083E-1,1.4957707E-1,-1.7595084E-1,2.1959643E0,-5.973823E-2,1.7421001E-1,-5.136665E-1,-5.5272084E-2,3.663598E-1,7.005732E-2,-1.5144588E-1,-4.073102E-2,4.4295704E-1,1.4823346E-1,-1.7260468E-1,-2.8651738E-1,-9.875017E-2,-2.3424247E-1,1.4287147E-1,5.025215E-2,-2.6072153E-1],"split_indices":[13,3,19,9,4,11,3,15,0,25,26,15,0,18,6,0,0,0,0,26,12,28,26,1,13,22,6,24,0,0,0,5,8,0,0,24,6,0,0,0,0,0,0,14,8,0,20,0,0,0,0,0,0,0,0,0,0,0,0,0,0],"split_type":[0,0,0,0,0,0,0,0,0,0,0,0,0,0,0,0,0,0,0,0,0,0,0,0,0,0,0,0,0,0,0,0,0,0,0,0,0,0,0,0,0,0,0,0,0,0,0,0,0,0,0,0,0,0,0,0,0,0,0,0,0],"sum_hessian":[3.7900797E2,5.824381E1,3.2076413E2,1.6870268E1,4.1373543E1,1.324248E1,3.0752167E2,3.0734694E0,1.3796799E1,2.1667002E1,1.970654E1,6.443676E0,6.7988043E0,2.8826846E2,1.925319E1,1.4392208E0,1.6342485E0,1.267454E1,1.1222583E0,2.620005E0,1.9046997E1,5.2900596E0,1.441648E1,2.1059341E0,4.337742E0,2.4096773E0,2.858588E2,1.770139E1,1.5518008E0,1.4863181E0,1.1336868E0,4.7431498E0,1.4303848E1,1.0616928E0,4.228367E0,3.345077E0,1.1071403E1,1.0116929E0,1.0942414E0,1.2517569E0,3.085985E0,1.0003568E0,1.4093206E0,2.806722E2,5.186596E0,1.223201E0,1.6478188E1,2.158412E0,2.5847375E0,7.6803594E0,6.6234884E0,2.0923827E0,1.2526944E0,2.2567167E0,8.814686E0,2.7869556E2,1.9766583E0,3.4880447E0,1.6985513E0,2.674069E0,1.3804119E1],"tree_param":{"num_deleted":"0","num_feature":"29","num_nodes":"61","size_leaf_vector":"1"}},{"base_weights":[-7.271522E-1,-1.6969097E-1,-8.443597E-1,-6.9292945E-1,2.5926745E-2,-9.443522E-1,-5.944774E-1,-9.432123E-2,-8.316011E-1,1.1262397E-1,-2.3020674E-1,-9.551724E-1,1.9413441E-2,-1.0579237E-1,-7.635992E-1,-1.58476E-1,1.5663943E-1,-2.7242163E-1,-1.512195E-2,4.3184757E-1,-7.785427E-2,-2.714132E-2,-9.6064264E-1,-3.4960598E-1,1.071628E0,-8.2586996E-2,-8.734442E-1,1.6230915E-1,4.5499584E-1,4.2069897E-1,-3.1011066E-1,-9.661568E-1,-5.0721593E-2,5.126759E-1,-6.14946E-1,5.5475086E-1,1.35596385E-2,-4.6538508E-1,3.614612E-1,-9.304456E-1,-2.7553654E-1,2.7285334E-1,-8.248177E-3,2.728765E-1,-4.7788285E-2,-2.1231018E-1,-1.2005032E-2,-2.9146543E-1,-1.177115E-1,4.137111E-1,-8.411969E-2,-2.7428412E-1,1.0310569E-1,8.447324E-2,-2.4521412E-1,-3.1876063E-3,-2.8586838E-1,2.9484165E-1,-2.3357019E-1],"categories":[],"categories_nodes":[],"categories_segments":[],"categories_sizes":[],"default_left":[0,0,0,0,0,0,0,0,0,0,0,0,0,0,0,0,0,0,0,0,0,0,0,0,0,0,0,0,0,0,0,0,0,0,0,0,0,0,0,0,0,0,0,0,0,0,0,0,0,0,0,0,0,0,0,0,0,0,0],"id":16,"left_children":[1,3,5,7,9,11,13,15,17,19,-1,21,-1,23,25,-1,-1,-1,-1,27,29,-1,31,33,35,37,39,41,-1,43,45,47,-1,49,51,-1,-1,53,-1,55,57,-1,-1,-1,-1,-1,-1,-1,-1,-1,-1,-1,-1,-1,-1,-1,-1,-1,-1],"loss_changes":[1.9482742E1,5.487217E0,5.633713E0,1.1315813E0,2.8276374E0,1.9766693E0,5.9986763E0,1.3109341E0,6.5359974E-1,2.2714133E0,0E0,7.341614E-1,0E0,6.136978E0,4.0037518E0,0E0,0E0,0E0,0E0,3.8199298E0,2.8975E0,0E0,5.891113E-1,4.2925396E0,2.8609738E0,4.834713E0,1.3391266E0,1.7635045E0,0E0,2.4186535E0,1.7841232E0,1.4804077E-1,0E0,3.5718958E0,4.2590976E0,0E0,0E0,2.1774063E0,0E0,8.637161E-1,4.2436104E0,0E0,0E0,0E0,0E0,0E0,0E0,0E0,0E0,0E0,0E0,0E0,0E0,0E0,0E0,0E0,0E0,0E0,0E0],"parents":[2147483647,0,0,1,1,2,2,3,3,4,4,5,5,6,6,7,7,8,8,9,9,11,11,13,13,14,14,19,19,20,20,22,22,23,23,24,24,25,25,26,26,27,27,29,29,30,30,31,31,33,33,34,34,37,37,39,39,40,40],"right_children":[2,4,6,8,10,12,14,16,18,20,-1,22,-1,24,26,-1,-1,-1,-1,28,30,-1,32,34,36,38,40,42,-1,44,46,48,-1,50,52,-1,-1,54,-1,56,58,-1,-1,-1,-1,-1,-1,-1,-1,-1,-1,-1,-1,-1,-1,-1,-1,-1,-1],"split_conditions":[-1.3940638E0,2.6339847E-1,5.2358633E-1,-1.4709982E0,5.2968055E-1,2.1970758E0,-5.7303035E-1,1.8008366E-1,1.0655162E0,-5.5150664E-1,-2.3020674E-1,-2.1810505E0,1.9413441E-2,1.3736819E0,-3.4707233E-1,-1.58476E-1,1.5663943E-1,-2.7242163E-1,-1.512195E-2,-2.3656462E-1,-1.2792422E0,-2.714132E-2,2.4931118E0,-1.8697809E0,-1.3627855E-1,1.0842073E0,6.511245E-1,-4.6295157E-1,4.5499584E-1,1.2818117E0,-3.4127513E-1,2.44138E0,-5.0721593E-2,8.164219E-1,4.7674164E-1,5.5475086E-1,1.35596385E-2,-8.5158616E-1,3.614612E-1,-1.1764863E0,-7.7306443E-1,2.7285334E-1,-8.248177E-3,2.728765E-1,-4.7788285E-2,-2.1231018E-1,-1.2005032E-2,-2.9146543E-1,-1.177115E-1,4.137111E-1,-8.411969E-2,-2.7428412E-1,1.0310569E-1,8.447324E-2,-2.4521412E-1,-3.1876063E-3,-2.8586838E-1,2.9484165E-1,-2.3357019E-1],"split_indices":[13,3,3,9,9,21,11,12,0,12,0,25,0,14,28,0,0,0,0,2,6,0,25,18,23,10,20,7,0,27,28,6,0,15,22,0,0,10,0,13,12,0,0,0,0,0,0,0,0,0,0,0,0,0,0,0,0,0,0],"split_type":[0,0,0,0,0,0,0,0,0,0,0,0,0,0,0,0,0,0,0,0,0,0,0,0,0,0,0,0,0,0,0,0,0,0,0,0,0,0,0,0,0,0,0,0,0,0,0,0,0,0,0,0,0,0,0,0,0,0,0],"sum_hessian":[2.993741E2,5.2434288E1,2.4693982E2,1.3576796E1,3.8857494E1,1.7438072E2,7.25591E1,2.8696148E0,1.0707181E1,3.5802673E1,3.0548184E0,1.7258351E2,1.7972088E0,1.9072836E1,5.3486263E1,1.7680959E0,1.1015189E0,9.604576E0,1.1026044E0,1.2906096E1,2.2896578E1,1.1951787E0,1.7138834E2,1.6383339E1,2.6894953E0,7.6722193E0,4.5814045E1,1.125838E1,1.6477168E0,7.0188375E0,1.5877741E1,1.6998364E2,1.4046848E0,3.6358113E0,1.2747529E1,1.0742061E0,1.6152891E0,6.4060426E0,1.2661765E0,4.131876E1,4.495284E0,1.5124433E0,9.745936E0,3.5001814E0,3.5186558E0,5.7675123E0,1.0110229E1,1.6771361E2,2.2700305E0,1.3845118E0,2.2512994E0,9.749497E0,2.9980314E0,2.115927E0,4.290116E0,1.0194931E0,4.0299267E1,1.011422E0,3.4838622E0],"tree_param":{"num_deleted":"0","num_feature":"29","num_nodes":"59","size_leaf_vector":"1"}},{"base_weights":[-6.691473E-1,-2.2639218E-1,-8.418735E-1,-6.446677E-1,6.1643932E-2,-8.8955325E-1,-2.7131677E-1,-1.9937558E-1,-8.4544915E-1,4.5047912E-1,-1.3084699E-1,-9.331559E-1,-4.2819586E-1,-5.7562405E-1,6.1638665E-1,-5.3568405E-1,2.4510771E-1,-8.9169014E-1,-2.5195065E-3,8.863284E-2,1.230108E0,-2.3573054E-1,-1.1793133E-2,-9.517007E-1,-3.071729E-1,5.998345E-1,-7.583803E-1,-8.0908656E-1,1.8199566E-1,4.2399693E-1,-1.7697372E-1,-6.9792256E-2,-2.4242416E-1,-2.828636E-1,-1.8868105E-2,-3.884778E-1,4.2371643E-1,-5.831707E-2,6.569365E-1,-1.6851383E-1,5.5571514E-1,-9.709022E-1,-5.382035E-1,2.9390317E-1,-2.388024E-1,4.2311904E-1,-1.7924155E-1,-2.7363217E-1,1.2623462E-1,-3.86958E-3,-2.6907304E-1,1.6020581E-1,-1.5231387E-1,-2.1048923E-1,2.2898607E-2,1.8891652E-1,-8.733156E-2,-7.941828E-2,2.3650156E-1,-8.4656306E-2,2.668021E-1,-1.0000368E-1,-2.934213E-1,8.531203E-2,-2.171291E-1],"categories":[],"categories_nodes":[],"categories_segments":[],"categories_sizes":[],"default_left":[0,0,0,0,0,0,0,0,0,0,0,0,0,0,0,0,0,0,0,0,0,0,0,0,0,0,0,0,0,0,0,0,0,0,0,0,0,0,0,0,0,0,0,0,0,0,0,0,0,0,0,0,0,0,0,0,0,0,0,0,0,0,0,0,0],"id":17,"left_children":[1,3,5,7,9,11,13,15,17,19,21,23,25,27,29,31,-1,33,-1,35,37,-1,39,41,43,45,47,49,-1,-1,-1,51,-1,-1,-1,53,55,-1,-1,57,59,61,63,-1,-1,-1,-1,-1,-1,-1,-1,-1,-1,-1,-1,-1,-1,-1,-1,-1,-1,-1,-1,-1,-1],"loss_changes":[1.8306305E1,8.382206E0,4.48188E0,2.3639097E0,3.1964717E0,2.8149185E0,4.360633E0,3.8939667E0,7.362118E-1,3.8702133E0,2.2373557E0,1.3926315E0,5.765765E0,3.6817086E0,4.937311E0,9.84427E-1,0E0,7.1277523E-1,0E0,1.8771071E0,6.4322424E0,0E0,2.3524344E0,5.929489E-1,4.335814E0,5.075886E0,2.6105127E0,6.934433E-1,0E0,0E0,0E0,1.3606819E0,0E0,0E0,0E0,7.727414E-1,1.1803534E0,0E0,0E0,2.1114626E0,1.8523196E0,2.8191376E-1,1.4999516E0,0E0,0E0,0E0,0E0,0E0,0E0,0E0,0E0,0E0,0E0,0E0,0E0,0E0,0E0,0E0,0E0,0E0,0E0,0E0,0E0,0E0,0E0],"parents":[2147483647,0,0,1,1,2,2,3,3,4,4,5,5,6,6,7,7,8,8,9,9,10,10,11,11,12,12,13,13,14,14,15,15,17,17,19,19,20,20,22,22,23,23,24,24,25,25,26,26,27,27,31,31,35,35,36,36,39,39,40,40,41,41,42,42],"right_children":[2,4,6,8,10,12,14,16,18,20,22,24,26,28,30,32,-1,34,-1,36,38,-1,40,42,44,46,48,50,-1,-1,-1,52,-1,-1,-1,54,56,-1,-1,58,60,62,64,-1,-1,-1,-1,-1,-1,-1,-1,-1,-1,-1,-1,-1,-1,-1,-1,-1,-1,-1,-1,-1,-1],"split_conditions":[-8.41771E-1,5.2358633E-1,1.9357407E0,-8.0557305E-1,-7.0337576E-1,7.6623476E-1,8.137988E-1,-9.424827E-1,1.4899839E0,-3.6681488E-1,-5.2000767E-1,1.1255426E0,-1.0252284E0,1.0094818E0,2.3645255E-1,1.6897543E-1,2.4510771E-1,2.0820212E0,-2.5195065E-3,1.4010695E0,4.217155E-1,-2.3573054E-1,5.927178E-1,1.219936E0,1.6001241E-1,5.575857E-1,1.3222038E0,-1.088395E0,1.8199566E-1,4.2399693E-1,-1.7697372E-1,-1.7392036E-1,-2.4242416E-1,-2.828636E-1,-1.8868105E-2,1.0101416E-1,1.0459229E0,-5.831707E-2,6.569365E-1,2.3049197E0,-7.640241E-1,-2.4538348E0,-4.5957425E-1,2.9390317E-1,-2.388024E-1,4.2311904E-1,-1.7924155E-1,-2.7363217E-1,1.2623462E-1,-3.86958E-3,-2.6907304E-1,1.6020581E-1,-1.5231387E-1,-2.1048923E-1,2.2898607E-2,1.8891652E-1,-8.733156E-2,-7.941828E-2,2.3650156E-1,-8.4656306E-2,2.668021E-1,-1.0000368E-1,-2.934213E-1,8.531203E-2,-2.171291E-1],"split_indices":[13,3,3,9,12,28,4,9,18,2,10,20,25,10,2,15,0,15,0,10,14,0,28,3,1,5,18,23,0,0,0,7,0,0,0,26,14,0,0,20,1,15,19,0,0,0,0,0,0,0,0,0,0,0,0,0,0,0,0,0,0,0,0,0,0],"split_type":[0,0,0,0,0,0,0,0,0,0,0,0,0,0,0,0,0,0,0,0,0,0,0,0,0,0,0,0,0,0,0,0,0,0,0,0,0,0,0,0,0,0,0,0,0,0,0,0,0,0,0,0,0,0,0,0,0,0,0,0,0,0,0,0,0],"sum_hessian":[2.4086722E2,6.824448E1,1.7262274E2,2.7325394E1,4.0919083E1,1.5879375E2,1.3829E1,9.111331E0,1.8214064E1,1.3105492E1,2.7813593E1,1.4414777E2,1.4645969E1,1.0560418E1,3.2685828E0,7.2014604E0,1.9098706E0,1.7198685E1,1.0153788E0,9.711715E0,3.3937764E0,3.416906E0,2.4396687E1,1.394949E2,4.652875E0,3.3619285E0,1.128404E1,9.082552E0,1.4778657E0,1.8649154E0,1.4036676E0,3.1205165E0,4.0809436E0,1.6068602E1,1.1300839E0,3.940981E0,5.770734E0,1.687051E0,1.7067254E0,1.966825E1,4.7284374E0,1.3201643E2,7.478466E0,1.0044835E0,3.6483917E0,1.8986143E0,1.463314E0,1.018297E1,1.1010704E0,1.0162585E0,8.066294E0,1.2195455E0,1.9009712E0,2.0501962E0,1.8907849E0,4.5721354E0,1.1985984E0,1.85285E1,1.1397496E0,1.3904605E0,3.3379772E0,1.9960512E0,1.3002039E2,1.2784894E0,6.199977E0],"tree_param":{"num_deleted":"0","num_feature":"29","num_nodes":"65","size_leaf_vector":"1"}},{"base_weights":[-6.0760015E-1,-8.5324836E-1,-2.6528767E-1,-1.7998575E-1,-8.948883E-1,2.564132E-2,-5.858943E-1,7.6133496E-1,-2.255316E-1,-3.9863366E-1,-9.224746E-1,-2.3141937E-1,1.0707747E-1,-2.4489908E-2,-7.9829925E-1,5.0729924E-1,-1.4976995E-1,-2.2493337E-1,1.8646324E-1,-9.31608E-1,-2.8819162E-3,9.658506E-1,1.9557722E-2,-6.184904E-1,5.0482005E-1,1.8263718E-2,-8.876217E-1,-9.4066644E-1,-1.2341357E-2,5.196003E-1,2.9792644E-3,1.3798045E-1,-6.052982E-1,5.198029E-2,-2.421347E-1,9.288222E-1,-1.8153821E-1,-1.9530046E-1,2.880869E-1,-2.7512255E-1,-2.8754237E-1,-1.7014436E-1,-2.9351708E-1,-1.7430577E-1,6.0652424E-2,-2.3453559E-1,5.187127E-2,6.240774E-1,2.222605E-2,1.4908607E-1,-2.0449086E-1],"categories":[],"categories_nodes":[],"categories_segments":[],"categories_sizes":[],"default_left":[0,0,0,0,0,0,0,0,0,0,0,0,0,0,0,0,0,0,0,0,0,0,0,0,0,0,0,0,0,0,0,0,0,0,0,0,0,0,0,0,0,0,0,0,0,0,0,0,0,0,0],"id":18,"left_children":[1,3,5,7,9,11,13,15,-1,17,19,-1,21,23,25,-1,-1,-1,-1,27,-1,29,31,33,35,37,39,41,-1,-1,-1,43,45,-1,-1,47,-1,-1,-1,49,-1,-1,-1,-1,-1,-1,-1,-1,-1,-1,-1],"loss_changes":[1.6472588E1,3.067604E0,7.8892555E0,4.85656E0,1.1136017E0,3.0175257E0,4.7745523E0,4.951417E0,0E0,3.1381853E0,8.3937836E-1,0E0,3.130544E0,4.1063085E0,2.1413517E0,0E0,0E0,0E0,0E0,7.7381897E-1,0E0,2.806E0,2.9729922E0,1.0561688E0,3.8242602E0,3.0541863E0,8.769455E-1,8.495102E-1,0E0,0E0,0E0,1.6702099E0,1.0151312E0,0E0,0E0,5.170448E0,0E0,0E0,0E0,1.6342956E0,0E0,0E0,0E0,0E0,0E0,0E0,0E0,0E0,0E0,0E0,0E0],"parents":[2147483647,0,0,1,1,2,2,3,3,4,4,5,5,6,6,7,7,9,9,10,10,12,12,13,13,14,14,19,19,21,21,22,22,23,23,24,24,25,25,26,26,27,27,31,31,32,32,35,35,39,39],"right_children":[2,4,6,8,10,12,14,16,-1,18,20,-1,22,24,26,-1,-1,-1,-1,28,-1,30,32,34,36,38,40,42,-1,-1,-1,44,46,-1,-1,48,-1,-1,-1,50,-1,-1,-1,-1,-1,-1,-1,-1,-1,-1,-1],"split_conditions":[5.2358633E-1,-1.6656148E0,-4.438695E-1,-2.8325742E-1,-1.8631431E0,-1.0290506E0,-3.2264403E-1,-1.12504765E-1,-2.255316E-1,-1.9748724E0,2.4931118E0,-2.3141937E-1,6.441573E-1,3.0065132E-2,-1.5379186E0,5.0729924E-1,-1.4976995E-1,-2.2493337E-1,1.8646324E-1,2.1970758E0,-2.8819162E-3,-4.4327706E-1,2.5916538E-1,-9.4143736E-1,8.421383E-1,2.1913663E-1,-1.2763172E0,-1.0792606E0,-1.2341357E-2,5.196003E-1,2.9792644E-3,8.115333E-1,7.6825494E-1,5.198029E-2,-2.421347E-1,-6.0458267E-1,-1.8153821E-1,-1.9530046E-1,2.880869E-1,-1.2989509E-1,-2.8754237E-1,-1.7014436E-1,-2.9351708E-1,-1.7430577E-1,6.0652424E-2,-2.3453559E-1,5.187127E-2,6.240774E-1,2.222605E-2,1.4908607E-1,-2.0449086E-1],"split_indices":[3,2,13,25,13,10,28,22,0,13,25,0,3,27,12,0,0,0,0,21,0,25,11,16,1,28,23,18,0,0,0,3,26,0,0,8,0,0,0,27,0,0,0,0,0,0,0,0,0,0,0],"split_type":[0,0,0,0,0,0,0,0,0,0,0,0,0,0,0,0,0,0,0,0,0,0,0,0,0,0,0,0,0,0,0,0,0,0,0,0,0,0,0,0,0,0,0,0,0,0,0,0,0,0,0],"sum_hessian":[1.975879E2,1.1416727E2,8.342065E1,6.959751E0,1.0720751E2,4.4216846E1,3.9203796E1,2.5047407E0,4.4550104E0,6.459366E0,1.0074815E2,3.313568E0,4.090328E1,1.1067293E1,2.8136505E1,1.2450595E0,1.2596812E0,5.002546E0,1.4568198E0,9.972981E1,1.0183408E0,2.854839E0,3.804844E1,5.1355777E0,5.9317155E0,2.8527687E0,2.5283737E1,9.866971E1,1.0601002E0,1.1340514E0,1.7207875E0,3.264142E1,5.4070225E0,1.0037477E0,4.1318297E0,4.4101954E0,1.52152E0,1.8484595E0,1.0043092E0,3.1278157E0,2.2155922E1,1.0521943E1,8.8147766E1,2.0155516E0,3.0625866E1,4.40371E0,1.0033128E0,1.2681011E0,3.1420941E0,1.0020957E0,2.12572E0],"tree_param":{"num_deleted":"0","num_feature":"29","num_nodes":"51","size_leaf_vector":"1"}},{"base_weights":[-5.424359E-1,-8.1173795E-1,-2.2372627E-1,-2.7893174E-1,-8.8108623E-1,-1.2462416E-2,-5.746197E-1,4.4874802E-1,-2.379534E-1,-2.7244624E-2,-8.9529943E-1,9.2344224E-2,-7.032128E-1,1.5464343E-1,-6.491901E-1,1.1504552E0,-1.8538012E-1,-9.392211E-1,-5.087164E-1,2.3904571E-1,-5.0729203E-1,-2.4801986E-1,-1.5694473E-3,-1.2875359E-1,-8.6078274E-1,-3.954587E-2,5.173856E-1,-9.529921E-1,-2.160624E-2,2.4426688E-1,-7.4970937E-1,5.4923695E-1,-1.5807158E-1,-6.8086255E-1,1.2944913E-1,-5.891553E-1,6.900392E-1,-9.069913E-1,-1.4176455E-3,-2.901098E-1,-5.8231622E-2,-1.6438213E-1,2.9844633E-1,-2.567445E-1,-5.985821E-3,2.3559687E-1,-7.614307E-2,2.0788564E-1,-9.3079746E-2,-2.3929082E-1,-4.065017E-2,-2.4604844E-1,9.699501E-2,4.441037E-1,-1.0602908E-1,-2.4395911E-2,-2.8484142E-1],"categories":[],"categories_nodes":[],"categories_segments":[],"categories_sizes":[],"default_left":[0,0,0,0,0,0,0,0,0,0,0,0,0,0,0,0,0,0,0,0,0,0,0,0,0,0,0,0,0,0,0,0,0,0,0,0,0,0,0,0,0,0,0,0,0,0,0,0,0,0,0,0,0,0,0,0,0],"id":19,"left_children":[1,3,5,7,9,11,13,15,-1,-1,17,19,21,-1,23,25,-1,27,29,31,33,-1,-1,35,37,-1,-1,39,-1,41,43,45,47,49,-1,51,53,55,-1,-1,-1,-1,-1,-1,-1,-1,-1,-1,-1,-1,-1,-1,-1,-1,-1,-1,-1],"loss_changes":[1.4143032E1,3.082615E0,5.7615204E0,4.7855835E0,8.087654E-1,3.65538E0,2.7100954E0,4.8577447E0,0E0,0E0,8.4199905E-1,3.9870253E0,5.689781E-1,0E0,2.9498453E0,2.944972E0,0E0,7.5081253E-1,2.0180755E0,4.519785E0,1.7535026E0,0E0,0E0,3.878349E0,7.704096E-1,0E0,0E0,5.311203E-1,0E0,2.4513266E0,5.9509563E-1,4.0722957E0,2.3596952E0,3.981006E-1,0E0,1.6214595E0,3.636519E0,5.743332E-1,0E0,0E0,0E0,0E0,0E0,0E0,0E0,0E0,0E0,0E0,0E0,0E0,0E0,0E0,0E0,0E0,0E0,0E0,0E0],"parents":[2147483647,0,0,1,1,2,2,3,3,4,4,5,5,6,6,7,7,10,10,11,11,12,12,14,14,15,15,17,17,18,18,19,19,20,20,23,23,24,24,27,27,29,29,30,30,31,31,32,32,33,33,35,35,36,36,37,37],"right_children":[2,4,6,8,10,12,14,16,-1,-1,18,20,22,-1,24,26,-1,28,30,32,34,-1,-1,36,38,-1,-1,40,-1,42,44,46,48,50,-1,52,54,56,-1,-1,-1,-1,-1,-1,-1,-1,-1,-1,-1,-1,-1,-1,-1,-1,-1,-1,-1],"split_conditions":[5.2358633E-1,-1.2952307E0,-1.9384112E-2,-2.4499753E-1,-1.8149316E0,8.4266853E-1,5.4768723E-1,-5.589883E-2,-2.379534E-1,-2.7244624E-2,8.6197406E-1,6.3597214E-1,7.424078E-1,1.5464343E-1,-1.500601E-1,8.5556254E-2,-1.8538012E-1,2.357528E0,-1.0404329E0,1.3562606E-1,2.8667027E-1,-2.4801986E-1,-1.5694473E-3,7.17018E-1,1.437867E0,-3.954587E-2,5.173856E-1,2.0820212E0,-2.160624E-2,3.4568153E-2,9.964711E-1,3.552851E-1,-3.496711E-1,1.4010695E0,1.2944913E-1,1.2323465E0,-2.559204E-2,-1.9567685E0,-1.4176455E-3,-2.901098E-1,-5.8231622E-2,-1.6438213E-1,2.9844633E-1,-2.567445E-1,-5.985821E-3,2.3559687E-1,-7.614307E-2,2.0788564E-1,-9.3079746E-2,-2.3929082E-1,-4.065017E-2,-2.4604844E-1,9.699501E-2,4.441037E-1,-1.0602908E-1,-2.4395911E-2,-2.8484142E-1],"split_indices":[3,2,11,25,19,2,3,7,0,0,6,0,15,0,20,8,0,25,25,7,7,0,0,24,2,0,0,15,0,14,12,13,28,10,0,17,8,14,0,0,0,0,0,0,0,0,0,0,0,0,0,0,0,0,0,0,0],"split_type":[0,0,0,0,0,0,0,0,0,0,0,0,0,0,0,0,0,0,0,0,0,0,0,0,0,0,0,0,0,0,0,0,0,0,0,0,0,0,0,0,0,0,0,0,0,0,0,0,0,0,0,0,0,0,0,0,0],"sum_hessian":[1.6589714E2,8.907984E1,7.68173E1,1.0837437E1,7.824241E1,4.8595013E1,2.8222284E1,4.5402136E0,6.297223E0,1.5129008E0,7.672951E1,4.2945293E1,5.649719E0,1.4284235E0,2.679386E1,2.6912572E0,1.8489563E0,6.7617584E1,9.111918E0,3.4987038E1,7.9582567E0,4.643507E0,1.0062122E0,8.209686E0,1.8584175E1,1.0706335E0,1.6206236E0,6.6463234E1,1.1543546E0,2.2059224E0,6.905996E0,1.942835E1,1.5558687E1,6.948339E0,1.009918E0,5.434411E0,2.7752748E0,1.7575954E1,1.00822E0,6.49866E1,1.4766324E0,1.2045141E0,1.0014083E0,5.8785257E0,1.02747E0,1.5031382E1,4.3969684E0,1.8213235E0,1.3737364E1,5.3419366E0,1.6064023E0,4.4172764E0,1.0171347E0,1.3409699E0,1.4343047E0,1.002621E0,1.6573334E1],"tree_param":{"num_deleted":"0","num_feature":"29","num_nodes":"57","size_leaf_vector":"1"}},{"base_weights":[-4.772235E-1,-7.623389E-1,-1.8749149E-1,-3.3947548E-1,-8.770817E-1,-2.0751351E-2,-5.0801116E-1,-6.096358E-1,4.7482768E-1,-9.091342E-1,9.1401294E-2,-2.0571822E-1,3.222107E-1,-7.427027E-1,-1.0766221E-1,-2.5402784E-1,-8.1079245E-2,3.6731333E-1,-1.3681488E-1,-3.470798E-1,-9.4184446E-1,1.4656968E-1,-4.8893675E-1,-6.0482133E-2,1.1345699E0,1.2059044E-1,-2.7695495E-1,3.3092543E-1,-2.3386855E-1,-2.2321801E-1,3.0697715E-1,1.4970821E-1,-2.1655233E-1,-9.6057326E-1,-1.2253453E-2,4.126781E-1,-6.049275E-1,-7.4476695E-1,-2.4145003E-2,1.5031265E-1,-2.0106624E-1,6.3457483E-1,1.5135282E-1,2.9633754E-1,-1.8246725E-1,-1.878394E-1,7.271517E-1,-2.9398423E-1,-4.9221423E-2,-1.5460035E-1,2.1721517E-1,-3.6922384E-2,-2.1356103E-1,-2.6361948E-1,-5.1160146E-2,1.7934097E-1,-1.4936931E-1,-8.404097E-2,1.3276304E-1,2.0819747E-1,-1.6760817E-1,4.2192003E-1,1.3803974E-2],"categories":[],"categories_nodes":[],"categories_segments":[],"categories_sizes":[],"default_left":[0,0,0,0,0,0,0,0,0,0,0,0,0,0,0,0,0,0,0,0,0,0,0,0,0,0,0,0,0,0,0,0,0,0,0,0,0,0,0,0,0,0,0,0,0,0,0,0,0,0,0,0,0,0,0,0,0,0,0,0,0,0,0],"id":20,"left_children":[1,3,5,7,9,11,13,15,17,19,-1,21,23,25,27,-1,29,-1,-1,31,33,35,37,39,41,43,-1,45,-1,-1,-1,-1,-1,47,-1,49,51,53,55,57,-1,-1,59,-1,-1,-1,61,-1,-1,-1,-1,-1,-1,-1,-1,-1,-1,-1,-1,-1,-1,-1,-1],"loss_changes":[1.1686115E1,3.1883087E0,3.8560634E0,4.02186E0,2.3936615E0,3.151465E0,2.242258E0,1.5828981E0,3.8996415E0,6.7796326E-1,0E0,3.2848797E0,5.487098E0,2.512597E0,3.2943053E0,0E0,4.5588775E0,0E0,0E0,1.8154944E0,8.2250595E-1,3.2736719E0,2.1322398E0,1.74557E0,5.110342E0,2.8440838E0,0E0,3.085565E0,0E0,0E0,0E0,0E0,0E0,6.1053467E-1,0E0,3.7717786E0,1.3705659E-1,7.447958E-1,2.4937408E0,1.4229425E0,0E0,0E0,1.8863213E0,0E0,0E0,0E0,2.418864E0,0E0,0E0,0E0,0E0,0E0,0E0,0E0,0E0,0E0,0E0,0E0,0E0,0E0,0E0,0E0,0E0],"parents":[2147483647,0,0,1,1,2,2,3,3,4,4,5,5,6,6,7,7,8,8,9,9,11,11,12,12,13,13,14,14,16,16,19,19,20,20,21,21,22,22,23,23,24,24,25,25,27,27,33,33,35,35,36,36,37,37,38,38,39,39,42,42,46,46],"right_children":[2,4,6,8,10,12,14,16,18,20,-1,22,24,26,28,-1,30,-1,-1,32,34,36,38,40,42,44,-1,46,-1,-1,-1,-1,-1,48,-1,50,52,54,56,58,-1,-1,60,-1,-1,-1,62,-1,-1,-1,-1,-1,-1,-1,-1,-1,-1,-1,-1,-1,-1,-1,-1],"split_conditions":[5.2358633E-1,-8.0557305E-1,-1.9384112E-2,1.0861687E-1,2.1970758E0,4.0859163E-1,6.518352E-1,1.5852565E-1,3.6739817E-1,-1.3822917E0,9.1401294E-2,-3.2264403E-1,-6.9015816E-2,-3.4707233E-1,9.2703275E-2,-2.5402784E-1,-2.7947305E-2,3.6731333E-1,-1.3681488E-1,-8.203078E-1,2.357528E0,1.2794514E-1,4.900455E-1,-2.7493227E0,-5.2341044E-1,-7.9335354E-2,-2.7695495E-1,-4.7212392E-2,-2.3386855E-1,-2.2321801E-1,3.0697715E-1,1.4970821E-1,-2.1655233E-1,2.0820212E0,-1.2253453E-2,7.3643826E-2,8.190716E-2,5.224324E-1,1.0248361E0,-3.4475344E-1,-2.0106624E-1,6.3457483E-1,-8.8580745E-1,2.9633754E-1,-1.8246725E-1,-1.878394E-1,6.871392E-2,-2.9398423E-1,-4.9221423E-2,-1.5460035E-1,2.1721517E-1,-3.6922384E-2,-2.1356103E-1,-2.6361948E-1,-5.1160146E-2,1.7934097E-1,-1.4936931E-1,-8.404097E-2,1.3276304E-1,2.0819747E-1,-1.6760817E-1,4.2192003E-1,1.3803974E-2],"split_indices":[3,9,11,3,21,20,16,28,3,18,0,28,16,28,7,0,1,0,0,25,25,22,10,13,15,20,0,26,0,0,0,0,0,15,0,15,15,8,10,28,0,0,21,0,0,0,26,0,0,0,0,0,0,0,0,0,0,0,0,0,0,0,0],"split_type":[0,0,0,0,0,0,0,0,0,0,0,0,0,0,0,0,0,0,0,0,0,0,0,0,0,0,0,0,0,0,0,0,0,0,0,0,0,0,0,0,0,0,0,0,0,0,0,0,0,0,0,0,0,0,0,0,0,0,0,0,0,0,0],"sum_hessian":[1.4219652E2,7.084711E1,7.134941E1,1.5965989E1,5.488112E1,4.7634052E1,2.3715355E1,1.2177288E1,3.7887015E0,5.365649E1,1.2246281E0,3.12048E1,1.6429253E1,1.4411778E1,9.303576E0,7.990518E0,4.18677E0,1.9241033E0,1.8645984E0,3.5894995E0,5.006699E1,1.4121692E1,1.7083109E1,1.1797254E1,4.6319995E0,2.5493388E0,1.186244E1,5.936172E0,3.3674042E0,2.8200252E0,1.3667446E0,1.000058E0,2.5894415E0,4.8982685E1,1.0843064E0,1.0761764E1,3.3599286E0,1.0629863E1,6.453245E0,9.326454E0,2.4707994E0,1.7425709E0,2.8894289E0,1.0018811E0,1.5474577E0,1.5681585E0,4.368014E0,4.759467E1,1.3880134E0,2.5391262E0,8.222637E0,1.0009195E0,2.359009E0,8.189127E0,2.4407363E0,2.6770003E0,3.776245E0,3.7880826E0,5.5383716E0,1.6506015E0,1.2388272E0,1.6539122E0,2.7141016E0],"tree_param":{"num_deleted":"0","num_feature":"29","num_nodes":"63","size_leaf_vector":"1"}},{"base_weights":[-4.179603E-1,-7.768652E-1,-2.0408028E-1,-1.6141182E-1,-8.350476E-1,-2.8904544E-3,-4.6086535E-1,-1.7828959E-1,1.8514097E-1,-1.4659935E-1,-8.961425E-1,2.4128082E-1,-4.0158242E-1,-7.7792823E-1,-1.1806659E-1,-2.1395817E-1,2.5419024E-1,-2.562655E-2,-9.1969705E-1,3.9729753E-1,-5.119182E-1,-5.369075E-1,1.4475039E-1,-8.696115E-1,-1.9130284E-1,-2.476813E-1,1.9007872E-1,-9.449615E-1,-1.7753415E-2,8.662178E-1,8.622429E-2,-2.1489209E-1,5.7125676E-2,-6.3890123E-1,4.200297E-2,-2.7915087E-1,-5.560972E-3,-1.8931182E-1,1.4947005E-1,-2.115295E-1,4.3307385E-1,-2.9149935E-1,-3.508241E-2,3.3346036E-1,-1.6017878E-1,1.0423022E-1,-1.7056389E-1,-9.307372E-2,-2.4608889E-1,4.0412545E-1,2.1317184E-2],"categories":[],"categories_nodes":[],"categories_segments":[],"categories_sizes":[],"default_left":[0,0,0,0,0,0,0,0,0,0,0,0,0,0,0,0,0,0,0,0,0,0,0,0,0,0,0,0,0,0,0,0,0,0,0,0,0,0,0,0,0,0,0,0,0,0,0,0,0,0,0],"id":21,"left_children":[1,3,5,7,9,11,13,-1,-1,15,17,19,21,23,25,-1,-1,-1,27,29,31,33,-1,35,37,-1,39,41,-1,43,45,-1,-1,47,-1,-1,-1,-1,-1,-1,49,-1,-1,-1,-1,-1,-1,-1,-1,-1,-1],"loss_changes":[9.398373E0,1.5171432E0,4.098983E0,2.1274045E0,1.6313152E0,4.5269895E0,3.697043E0,0E0,0E0,3.2012045E0,6.5275764E-1,3.593297E0,2.371857E0,7.98028E-1,4.0659156E0,0E0,0E0,0E0,7.509346E-1,3.4933167E0,9.0970767E-1,1.1795344E0,0E0,7.7177143E-1,1.4380103E0,0E0,3.1989696E0,6.8208313E-1,0E0,3.9062176E0,2.9025443E0,0E0,0E0,5.7424307E-1,0E0,0E0,0E0,0E0,0E0,0E0,3.571163E0,0E0,0E0,0E0,0E0,0E0,0E0,0E0,0E0,0E0,0E0],"parents":[2147483647,0,0,1,1,2,2,3,3,4,4,5,5,6,6,9,9,10,10,11,11,12,12,13,13,14,14,18,18,19,19,20,20,21,21,23,23,24,24,26,26,27,27,29,29,30,30,33,33,40,40],"right_children":[2,4,6,8,10,12,14,-1,-1,16,18,20,22,24,26,-1,-1,-1,28,30,32,34,-1,36,38,-1,40,42,-1,44,46,-1,-1,48,-1,-1,-1,-1,-1,-1,50,-1,-1,-1,-1,-1,-1,-1,-1,-1,-1],"split_conditions":[2.2055954E-1,-1.4709982E0,-2.1265022E-1,-3.9270136E-1,-1.3448716E0,6.32983E-1,3.5637054E-1,-1.7828959E-1,1.8514097E-1,6.0819113E-1,-1.8149316E0,1.2486998E0,-3.4687695E-1,1.0842073E0,-1.9026668E-1,-2.1395817E-1,2.5419024E-1,-2.562655E-2,1.3476447E0,-1.125809E-1,1.0123305E0,1.680066E0,1.4475039E-1,1.3350425E0,4.8008797E-1,-2.476813E-1,-7.497802E-1,2.0820212E0,-1.7753415E-2,2.535569E-1,-1.4899705E-1,-2.1489209E-1,5.7125676E-2,-1.31477E0,4.200297E-2,-2.7915087E-1,-5.560972E-3,-1.8931182E-1,1.4947005E-1,-2.115295E-1,-4.1313335E-1,-2.9149935E-1,-3.508241E-2,3.3346036E-1,-1.6017878E-1,1.0423022E-1,-1.7056389E-1,-9.307372E-2,-2.4608889E-1,4.0412545E-1,2.1317184E-2],"split_indices":[3,9,11,0,12,17,16,0,0,17,19,12,11,10,17,0,0,0,11,7,20,1,0,12,2,0,23,15,0,0,9,0,0,18,0,0,0,0,0,0,23,0,0,0,0,0,0,0,0,0,0],"split_type":[0,0,0,0,0,0,0,0,0,0,0,0,0,0,0,0,0,0,0,0,0,0,0,0,0,0,0,0,0,0,0,0,0,0,0,0,0,0,0,0,0,0,0,0,0,0,0,0,0,0,0],"sum_hessian":[1.2349961E2,4.513232E1,7.836729E1,4.2240934E0,4.0908226E1,4.4507298E1,3.3859993E1,2.866774E0,1.3573195E0,3.6115034E0,3.7296722E1,2.7847467E1,1.665983E1,1.6930872E1,1.692912E1,2.480098E0,1.1314052E0,1.1836436E0,3.611308E1,2.3460423E1,4.3870435E0,1.4788828E1,1.8710029E0,1.4225225E1,2.7056472E0,4.6266103E0,1.2302508E1,3.4987724E1,1.1253552E0,8.644644E0,1.481578E1,3.3827353E0,1.0043082E0,1.2901126E1,1.8877019E0,1.3188321E1,1.0369041E0,1.7038742E0,1.0017731E0,2.2205307E0,1.0081978E1,3.3726593E1,1.2611334E0,7.5312414E0,1.1134021E0,1.0926297E1,3.8894827E0,5.552079E0,7.349046E0,2.0883365E0,7.9936414E0],"tree_param":{"num_deleted":"0","num_feature":"29","num_nodes":"51","size_leaf_vector":"1"}},{"base_weights":[-3.642361E-1,-8.420231E-1,-2.1418214E-1,-1.2563123E-1,-9.151583E-1,2.3908576E-3,-4.8077375E-1,-1.8550575E-1,1.7048034E-1,-2.8658012E-1,-2.5675394E-2,-5.5279072E-2,3.5999203E-1,-6.3884217E-1,4.899729E-1,1.9308183E-2,-2.3301156E-1,5.8811888E-2,-8.1023026E-1,5.4472953E-1,-2.0336062E-1,-1.0313797E-1,1.406507E0,-2.1340616E-1,8.032066E-1,1.13285944E-1,-8.796333E-1,-2.1043912E-1,1.6436832E-1,2.954696E-2,-1.0995328E-1,7.984531E-1,-5.666724E-2,3.855534E-1,-4.658539E-2,-2.8268182E-1,-5.7993565E-2],"categories":[],"categories_nodes":[],"categories_segments":[],"categories_sizes":[],"default_left":[0,0,0,0,0,0,0,0,0,0,0,0,0,0,0,0,0,0,0,0,0,0,0,0,0,0,0,0,0,0,0,0,0,0,0,0,0],"id":22,"left_children":[1,3,5,7,9,11,13,-1,-1,-1,-1,15,-1,17,19,21,-1,23,25,-1,27,29,31,-1,33,-1,35,-1,-1,-1,-1,-1,-1,-1,-1,-1,-1],"loss_changes":[7.7023935E0,1.2439518E0,4.9095135E0,1.5691311E0,6.960106E-1,3.3746624E0,6.1609497E0,0E0,0E0,0E0,0E0,2.5255842E0,0E0,4.0183725E0,5.7950687E0,7.4932785E0,0E0,4.86058E0,2.5355453E0,0E0,2.1711688E0,2.1965497E0,7.665103E0,0E0,2.1740508E0,0E0,9.163437E-1,0E0,0E0,0E0,0E0,0E0,0E0,0E0,0E0,0E0,0E0],"parents":[2147483647,0,0,1,1,2,2,3,3,4,4,5,5,6,6,11,11,13,13,14,14,15,15,17,17,18,18,20,20,21,21,22,22,24,24,26,26],"right_children":[2,4,6,8,10,12,14,-1,-1,-1,-1,16,-1,18,20,22,-1,24,26,-1,28,30,32,-1,34,-1,36,-1,-1,-1,-1,-1,-1,-1,-1,-1,-1],"split_conditions":[-2.0800664E-1,-1.8631431E0,-4.438695E-1,4.066888E-1,2.020089E0,-5.207222E-1,1.0334257E0,-1.8550575E-1,1.7048034E-1,-2.8658012E-1,-2.5675394E-2,8.131703E-1,3.5999203E-1,-3.4707233E-1,1.2523904E0,3.9983076E-1,-2.3301156E-1,5.039514E-2,-2.3072655E0,5.4472953E-1,-5.973823E-2,2.6262507E-1,-3.3753836E-1,-2.1340616E-1,5.7259685E-1,1.13285944E-1,1.6749219E0,-2.1043912E-1,1.6436832E-1,2.954696E-2,-1.0995328E-1,7.984531E-1,-5.666724E-2,3.855534E-1,-4.658539E-2,-2.8268182E-1,-5.7993565E-2],"split_indices":[3,13,13,23,6,13,6,0,0,0,0,2,0,28,6,2,0,26,18,0,8,6,9,0,2,0,18,0,0,0,0,0,0,0,0,0,0],"split_type":[0,0,0,0,0,0,0,0,0,0,0,0,0,0,0,0,0,0,0,0,0,0,0,0,0,0,0,0,0,0,0,0,0,0,0,0,0],"sum_hessian":[1.0895004E2,2.493691E1,8.401313E1,2.561701E0,2.237521E1,4.690202E1,3.7111107E1,1.5616692E0,1.0000318E0,2.1198763E1,1.1764467E0,4.5657227E1,1.2447957E0,3.2208454E1,4.902653E0,4.226114E1,3.3960853E0,6.48153E0,2.5726925E1,1.1275882E0,3.775065E0,3.968394E1,2.5771973E0,3.2074373E0,3.274093E0,1.1750299E0,2.4551895E1,2.3098483E0,1.4652166E0,2.2831272E1,1.6852669E1,1.0684611E0,1.5087363E0,1.9518055E0,1.3222874E0,2.2156754E1,2.3951418E0],"tree_param":{"num_deleted":"0","num_feature":"29","num_nodes":"37","size_leaf_vector":"1"}},{"base_weights":[-2.997112E-1,-8.0140644E-1,-1.6714543E-1,-4.8934255E-2,-8.9108825E-1,-5.5055944E-3,-4.6290126E-1,-1.4968313E-1,1.439264E-1,-2.826646E-1,-1.5453272E-2,-3.02034E-1,1.7096922E-1,1.7168719E-1,-5.364788E-1,-5.8192E-1,1.5559126E-1,-1.2214549E-1,6.2666243E-1,-7.7886534E-1,-3.480611E-2,1.858773E-1,-7.465248E-1,3.9111584E-1,-1.8987218E-1,3.4652618E-1,-3.5511276E-1,1.27335E0,1.1347731E-2,-6.5098815E-2,-2.800963E-1,6.3319635E-1,-6.985334E-1,1.875918E-1,-1.018679E-1,-6.0602628E-2,-2.67813E-1,-1.9915877E-1,2.7345762E-2,2.1671304E-1,-1.562652E-1,-1.8859498E-1,1.8515823E-2,5.823521E-1,7.669467E-2,2.820553E-1,-1.2037058E-1,-1.397193E-1,1.8697847E-1,-7.6375E-2,4.2290437E-1,-2.3218742E-1,-5.528745E-2],"categories":[],"categories_nodes":[],"categories_segments":[],"categories_sizes":[],"default_left":[0,0,0,0,0,0,0,0,0,0,0,0,0,0,0,0,0,0,0,0,0,0,0,0,0,0,0,0,0,0,0,0,0,0,0,0,0,0,0,0,0,0,0,0,0,0,0,0,0,0,0,0,0],"id":23,"left_children":[1,3,5,7,9,11,13,-1,-1,-1,-1,15,17,-1,19,21,23,25,27,29,31,33,35,-1,37,39,41,43,45,47,-1,49,51,-1,-1,-1,-1,-1,-1,-1,-1,-1,-1,-1,-1,-1,-1,-1,-1,-1,-1,-1,-1],"loss_changes":[6.4795485E0,1.3411589E0,3.8180792E0,1.0110056E0,7.360039E-1,2.808826E0,2.4572778E0,0E0,0E0,0E0,0E0,2.6546717E0,4.573775E0,0E0,3.2406888E0,1.7353516E0,3.5738785E0,2.45161E0,5.294838E0,1.9359207E0,4.78788E0,9.121267E-1,6.6359186E-1,0E0,1.0354923E0,2.8498511E0,1.7193706E0,3.9190664E0,3.384072E0,1.4749417E0,0E0,4.087836E0,6.649518E-2,0E0,0E0,0E0,0E0,0E0,0E0,0E0,0E0,0E0,0E0,0E0,0E0,0E0,0E0,0E0,0E0,0E0,0E0,0E0,0E0],"parents":[2147483647,0,0,1,1,2,2,3,3,4,4,5,5,6,6,11,11,12,12,14,14,15,15,16,16,17,17,18,18,19,19,20,20,21,21,22,22,24,24,25,25,26,26,27,27,28,28,29,29,31,31,32,32],"right_children":[2,4,6,8,10,12,14,-1,-1,-1,-1,16,18,-1,20,22,24,26,28,30,32,34,36,-1,38,40,42,44,46,48,-1,50,52,-1,-1,-1,-1,-1,-1,-1,-1,-1,-1,-1,-1,-1,-1,-1,-1,-1,-1,-1,-1],"split_conditions":[-2.0800664E-1,-1.4709982E0,2.5572486E-2,-5.810837E-1,1.3226804E0,-1.16409294E-1,-1.3448716E0,-1.4968313E-1,1.439264E-1,-2.826646E-1,-1.5453272E-2,1.8931368E-1,1.8177515E-1,1.7168719E-1,5.9088653E-1,-9.6696603E-1,-9.631036E-1,-7.134721E-1,-5.1966414E-2,-1.8631431E0,-6.735929E-2,6.982942E-1,-1.0984746E0,3.9111584E-1,6.2254965E-1,7.209282E-1,2.2963034E-2,-1.1955124E-1,-8.589986E-1,7.238614E-1,-2.800963E-1,6.544249E-1,2.1098563E-1,1.875918E-1,-1.018679E-1,-6.0602628E-2,-2.67813E-1,-1.9915877E-1,2.7345762E-2,2.1671304E-1,-1.562652E-1,-1.8859498E-1,1.8515823E-2,5.823521E-1,7.669467E-2,2.820553E-1,-1.2037058E-1,-1.397193E-1,1.8697847E-1,-7.6375E-2,4.2290437E-1,-2.3218742E-1,-5.528745E-2],"split_indices":[3,9,11,0,16,20,12,0,0,0,0,27,23,0,24,16,10,23,26,13,20,15,14,0,10,15,25,9,24,8,0,11,9,0,0,0,0,0,0,0,0,0,0,0,0,0,0,0,0,0,0,0,0],"split_type":[0,0,0,0,0,0,0,0,0,0,0,0,0,0,0,0,0,0,0,0,0,0,0,0,0,0,0,0,0,0,0,0,0,0,0,0,0,0,0,0,0,0,0,0,0,0,0,0,0,0,0,0,0],"sum_hessian":[9.8439735E1,1.9520193E1,7.891954E1,2.2433221E0,1.7276873E1,5.1688675E1,2.7230867E1,1.2422259E0,1.0010962E0,1.6169935E1,1.1069366E0,1.90193E1,3.2669376E1,1.3572408E0,2.5873627E1,1.1632931E1,7.3863697E0,2.0326654E1,1.234272E1,1.7072432E1,8.801196E0,2.030845E0,9.602086E0,1.0668677E0,6.319502E0,6.587272E0,1.3739383E1,5.496521E0,6.8461995E0,3.295715E0,1.3776715E1,4.4093966E0,4.391799E0,1.0024316E0,1.0284133E0,2.5363731E0,7.065713E0,1.8451266E0,4.4743752E0,4.7125273E0,1.874745E0,7.988766E0,5.750616E0,2.7708542E0,2.7256665E0,1.7123832E0,5.1338162E0,2.2876823E0,1.0080329E0,2.3708558E0,2.0385408E0,3.3895957E0,1.0022033E0],"tree_param":{"num_deleted":"0","num_feature":"29","num_nodes":"53","size_leaf_vector":"1"}},{"base_weights":[-2.4842486E-1,-2.8815104E-2,-5.1101834E-1,1.862977E-1,-3.0750984E-1,-6.6141546E-1,2.0101954E-1,5.6257415E-1,-1.7626159E-1,7.4382365E-2,-6.960347E-1,-8.58655E-1,-1.07852906E-1,-2.040053E-1,6.216605E-1,-3.2134137E-1,8.7823206E-1,-4.2464244E-1,3.5770047E-1,6.395692E-1,-1.03882864E-1,-4.9283464E-2,-2.6065633E-1,-9.1646254E-1,1.9103833E-2,-5.769309E-1,3.2552716E-1,1.3888971E0,-2.0347053E-1,7.001337E-2,-1.9509032E-1,-2.1054952E-3,1.4305314E0,-6.314495E-1,2.7442232E-1,8.986639E-1,-3.7711337E-1,5.106852E-2,2.3886062E-1,9.3926884E-2,-2.0202522E-1,-1.1409632E-1,8.731804E-2,-2.867909E-1,-4.715049E-2,-2.3013856E-1,3.35526E-2,-3.4094456E-1,3.3820358E-1,8.857712E-2,5.6853646E-1,1.4525823E-1,-1.9023106E-1,1.3647628E-1,-9.6662715E-2,3.5952587E-2,6.8209934E-1,1.8296912E-2,-2.2645612E-1,3.110428E-1,-1.6580716E-1,-1.1116911E-2,4.1217405E-1,-1.7061222E-2,-1.5380143E-1,1.6777393E-1,-5.4590244E-2,1.08222775E-1,-2.0874915E-1],"categories":[],"categories_nodes":[],"categories_segments":[],"categories_sizes":[],"default_left":[0,0,0,0,0,0,0,0,0,0,0,0,0,0,0,0,0,0,0,0,0,0,0,0,0,0,0,0,0,0,0,0,0,0,0,0,0,0,0,0,0,0,0,0,0,0,0,0,0,0,0,0,0,0,0,0,0,0,0,0,0,0,0,0,0,0,0,0,0],"id":24,"left_children":[1,3,5,7,9,11,13,15,17,19,21,23,25,-1,27,29,31,33,35,37,39,41,-1,43,-1,45,47,49,51,-1,-1,53,55,57,59,61,63,-1,-1,65,-1,-1,-1,-1,-1,-1,-1,67,-1,-1,-1,-1,-1,-1,-1,-1,-1,-1,-1,-1,-1,-1,-1,-1,-1,-1,-1,-1,-1],"loss_changes":[5.227532E0,3.0886002E0,4.5600595E0,4.077189E0,3.3759134E0,3.6594524E0,3.3787098E0,4.3412356E0,2.222442E0,1.2958041E0,1.209238E0,1.4016018E0,2.255533E0,0E0,4.0310497E0,9.839172E-1,5.3452263E0,1.7798524E0,2.5249157E0,8.981931E-2,1.2051991E0,4.962687E-1,0E0,5.628624E-1,0E0,7.7293694E-1,3.551227E0,1.209815E0,1.4101512E0,0E0,0E0,9.1234064E-1,7.1903057E0,8.047135E-1,2.6123497E0,1.5909336E0,1.0265243E-1,0E0,0E0,1.1802627E0,0E0,0E0,0E0,0E0,0E0,0E0,0E0,1.2480872E0,0E0,0E0,0E0,0E0,0E0,0E0,0E0,0E0,0E0,0E0,0E0,0E0,0E0,0E0,0E0,0E0,0E0,0E0,0E0,0E0,0E0],"parents":[2147483647,0,0,1,1,2,2,3,3,4,4,5,5,6,6,7,7,8,8,9,9,10,10,11,11,12,12,14,14,15,15,16,16,17,17,18,18,19,19,20,20,21,21,23,23,25,25,26,26,27,27,28,28,31,31,32,32,33,33,34,34,35,35,36,36,39,39,47,47],"right_children":[2,4,6,8,10,12,14,16,18,20,22,24,26,-1,28,30,32,34,36,38,40,42,-1,44,-1,46,48,50,52,-1,-1,54,56,58,60,62,64,-1,-1,66,-1,-1,-1,-1,-1,-1,-1,68,-1,-1,-1,-1,-1,-1,-1,-1,-1,-1,-1,-1,-1,-1,-1,-1,-1,-1,-1,-1,-1],"split_conditions":[-4.438695E-1,1.1646209E-1,1.0334257E0,-2.4499753E-1,-5.531393E-1,1.219936E0,-1.0351921E0,-4.7079352E-1,1.4010695E0,4.6793097E-3,-1.7335463E0,1.4900625E0,1.3451158E-1,-2.040053E-1,-2.2966107E-2,-7.2043276E-1,-2.1186097E0,5.7527626E-1,-3.0174676E-1,2.2399491E-1,-2.282446E0,-7.885004E-2,-2.6065633E-1,1.5646391E0,1.9103833E-2,3.4712246E-1,-2.4402179E-1,5.1904786E-1,-1.1251518E0,7.001337E-2,-1.9509032E-1,2.2071933E-2,2.814821E-1,-1.4172139E0,7.4345595E-1,-6.462545E-1,-1.8559191E0,5.106852E-2,2.3886062E-1,8.53671E-1,-2.0202522E-1,-1.1409632E-1,8.731804E-2,-2.867909E-1,-4.715049E-2,-2.3013856E-1,3.35526E-2,-9.665274E-2,3.3820358E-1,8.857712E-2,5.6853646E-1,1.4525823E-1,-1.9023106E-1,1.3647628E-1,-9.6662715E-2,3.5952587E-2,6.8209934E-1,1.8296912E-2,-2.2645612E-1,3.110428E-1,-1.6580716E-1,-1.1116911E-2,4.1217405E-1,-1.7061222E-2,-1.5380143E-1,1.6777393E-1,-5.4590244E-2,1.08222775E-1,-2.0874915E-1],"split_indices":[13,26,6,25,6,3,0,26,10,7,9,20,16,0,1,4,13,5,12,23,13,7,0,12,0,10,0,18,18,0,0,10,4,11,5,5,9,0,0,27,0,0,0,0,0,0,0,5,0,0,0,0,0,0,0,0,0,0,0,0,0,0,0,0,0,0,0,0,0],"split_type":[0,0,0,0,0,0,0,0,0,0,0,0,0,0,0,0,0,0,0,0,0,0,0,0,0,0,0,0,0,0,0,0,0,0,0,0,0,0,0,0,0,0,0,0,0,0,0,0,0,0,0,0,0,0,0,0,0,0,0,0,0,0,0,0,0,0,0,0,0],"sum_hessian":[8.990393E1,4.956332E1,4.0340607E1,2.8159622E1,2.14037E1,3.336444E1,6.976165E0,1.3547691E1,1.4611932E1,1.120174E1,1.0201959E1,2.4193079E1,9.171363E0,2.055104E0,4.921061E0,3.5602264E0,9.987465E0,1.011262E1,4.4993114E0,2.0654685E0,9.136272E0,2.4222448E0,7.7797136E0,2.2772192E1,1.4208869E0,4.2452226E0,4.926141E0,2.1959465E0,2.7251143E0,1.4334989E0,2.1267276E0,4.2343345E0,5.75313E0,7.8785887E0,2.2340314E0,2.4630523E0,2.036259E0,1.0389917E0,1.0264769E0,7.4008894E0,1.7353828E0,1.1683644E0,1.2538803E0,2.139971E1,1.3724809E0,3.2374678E0,1.0077547E0,3.0039995E0,1.9221411E0,1.1958032E0,1.0001433E0,1.0014892E0,1.7236253E0,1.5706615E0,2.663673E0,2.6992145E0,3.0539155E0,